solver_type L2R_L2LOSS_SVC_DUAL
nr_class 3
label 0 2 1
nr_feature 3600
bias -1
w
-0.005861743475768518 -0.008261000968642228 0.01381935729433041 
0.01318261035146586 -0.01878242320547863 0.005240811004661334 
-0.01025970919055424 0.03584001705909947 -0.02057446705393951 
0.01490426210531141 -0.004597785953992776 -0.007005041140672733 
-0.01958810370033612 0.01432114919658047 0.006704294589925244 
0.009251718433079412 0.002031115636719477 -0.01161816626059125 
0.02260016290546574 0.005708114329526628 -0.02824876802209192 
-0.0162085574872448 -0.00561298504546824 0.02069164281782817 
-0.002269687049111371 -0.007162533140016884 0.006365251947568019 
0.0008249841744154032 0.01619666806340223 -0.01764638437207747 
-0.006612902098727422 -0.01765493445769456 0.02594858858191103 
-0.02300443598527848 0.009848431749756623 0.01327259421457263 
-0.01178702523878298 0.0134544441779653 -1.547619412834113e-05 
-0.01771563034927936 -0.004898668949460182 0.02092675491117467 
0.00633185646107795 -0.02209681282873092 0.01680123386415845 
-0.004013663592730496 -0.01395345933344623 0.01998628395366841 
0.001800529362424553 -0.005603469569694037 0.00600360660227709 
-0.005875794486569246 0.01320624094670904 -0.006830167650071114 
-0.001453535290786738 -0.0006451221935824163 0.00405701062441448 
0.007343894417364765 0.001923433193925464 -0.009833529611560811 
0.002999628379275475 -0.02001361525304622 0.02108250116933064 
0.002856370136459014 0.008569239299083315 -0.01066539356812775 
-0.002001355997809779 0.01199658264711874 -0.00733943645660415 
-0.004007377541572341 0.01729538450200338 -0.009363063385017545 
-0.008828731975963155 0.01495230821416819 -0.003863747426196558 
0.0009183104109499233 -0.01399687290619871 0.01001496732593431 
0.000511393194818084 0.01497834736090616 -0.0145589008695008 
0.00320563627511404 -0.004708355869108068 0.004841624158704274 
0.001774144437270867 -0.002201735331525755 0.0002346261655492565 
0.01766871443363723 -0.01370948210737849 -0.003785113858713978 
-0.005803293523398991 0.008479670120711319 0.003804171391197186 
-0.03890280225812434 -0.005476775574889008 0.04484856686572362 
0.00391894619464221 0.008374543403693438 -0.008771128976731135 
0.01068533597475661 -0.004788855822641226 -0.006656656296043856 
0.01078648383026156 -0.005948517763172647 -0.00721067310564983 
0.01337516687739276 -0.01936709329110124 0.004418511939764105 
0.000559139052309608 -0.007309498348683004 0.009155436186164823 
-0.0139893155478788 0.006302544591272466 0.008248861493604855 
0.01641248534541313 -0.001168463316490589 -0.01523505350473105 
0.007049739348879272 -0.005135580500404205 0.0002585378778081603 
0.01295701323459336 -0.004996233159775564 -0.01071859346735262 
0.03154452649792541 -0.0009627775407533479 -0.02284756823851011 
-0.01081534152754444 -0.01294883589608279 0.02443969791609289 
0.01573464327070621 -0.004587900622510962 -0.01030444946650112 
0.009827976765377564 -0.01382885849869803 0.005479947482875764 
0.004926517398128496 -0.00387670720910336 0.00107848661365195 
-0.002086985363912675 0.005845916421780876 0.0004275742013463975 
0.0287290747198126 -0.02321220024979953 -0.008041772562945764 
0.004255297828962613 -0.00545241659532611 0.003622786055730774 
0.00515083057255849 -0.005400198516532864 0.000127159914377796 
-0.001417010971518185 0.002177847083948774 -0.003135314246351677 
-0.004472139512801877 0.01349777515526143 -0.007858194292075162 
-0.0008213143224252066 0.0004788143276464601 0.0007053308715175182 
-0.01059557979570939 -0.009647606122454676 0.01801412606670623 
0.004724722713721864 -0.003504838766065073 -0.002219876683489539 
-0.01910021946807824 0.00671510341659029 0.006470945615672991 
0.01639175450429236 0.003933111572231449 -0.01931567050026517 
0.002790124209535989 -0.006904192454633573 -0.0007948749139932439 
-0.02116488138983013 0.008126502502048787 0.008381891609292442 
0.001969949247051724 0.01118260144173418 -0.01658054039182719 
0.006833986209525139 -0.005802014946841579 0.0004250390246967811 
0.01364370659405109 -0.01901186465355676 0.002614876366834426 
0.02032765189000701 -0.01439078601930245 -0.004352558403821563 
-0.01099520797166801 0.004147188394797949 0.007574364157657857 
-0.004784506965893264 0.0220813098525719 -0.01524551694916845 
-0.007978134669802612 -0.01879604194082399 0.02470315022515056 
-0.00526819875584926 0.008938464784793963 -0.001733156289621129 
-0.01601228413842466 0.003719399613969632 0.0100963294548257 
0.01314549406480304 0.005573495750466165 -0.01819569127640126 
0.00243240743372253 0.005675986208893515 -0.007932264447216789 
-0.001335664606728126 -0.005069946817474459 0.008020124760304066 
0.002850085649875718 -0.001909239657395857 -0.001239714292228088 
0.01128574191924988 0.001689878639898969 -0.01488327556469222 
-0.007544140759384864 -0.007044161193942837 0.01429685628480577 
-0.008557902315235406 0.006960602043609039 0.00235501009797901 
0.003098473531436556 -0.0189577510192199 0.01173986282050583 
0.00602698096142002 -0.0217763332654589 0.00940627103748972 
-0.001931243875621762 0.0003027629056402684 0.004673505470388387 
0.002009828496782851 -0.01842332733017999 0.01599149647857468 
0.002709551053279398 -0.01825638189648536 0.01227789941398344 
0.006551165394799589 0.0007012056228385109 -0.01287945123453763 
-0.00656442141295676 0.01032263773055737 -0.002434459211094119 
0.009082455823359434 -0.008764934168291223 0.0004586046629423711 
-0.005230035587492949 0.02049354038054212 -0.01516921703360026 
0.006743453324006283 -0.009154731990009912 0.006977300403347428 
0.0207472834753263 -0.01549363832410971 -0.002634115746752788 
0.001133077364714774 -0.001795960337837893 0.001013810077295519 
-0.0218296491373266 -0.006121807508634622 0.02557389657037533 
0.002791477194311426 -0.0138936954542317 0.01422447922652154 
-0.000657699176017015 0.009771395627425622 -0.01591529637833089 
0.001575871835403698 -0.007302154896900871 0.005463049269450749 
0.02351439999688629 -0.002439477287062987 -0.01738268057700261 
-0.02025942894702427 0.04756974198774286 -0.02251665499303358 
0.003265504667127038 -0.003327227178489032 0.002336623765881421 
-0.001283010326118412 -0.005980277320024209 0.004044986872044486 
0.01082428074672666 -0.001248790247064174 -0.006721163802530137 
0.001646348110127953 -0.02962095252361024 0.02544058408858707 
-0.008936232927921643 0.000946735739962494 0.01147866979390759 
-0.008352187927987281 0.005286196388861237 0.005379130698904113 
0.01505458322699856 -0.02112410984610982 0.006015172553307353 
0.002414335664314457 -0.01379178701452786 0.01043582209649504 
-0.005371425943892606 -0.008751479431999592 0.01245610183225159 
-0.006930866865940935 0.02943111995296204 -0.02067757611842732 
-0.004071365847901118 -0.004043145915972751 0.007371658726764872 
0.005459919781315135 0.01201087260991209 -0.02008683685319165 
0.01728612299098763 0.006802093399382313 -0.02296886141339383 
0.005860720457891689 -0.002943511184842469 -0.001645428715947461 
-0.004294828001656883 -0.002296366221278345 0.001055074771676472 
-0.01407262922171365 -0.009520115207506664 0.0236890158722632 
-0.007605237836513707 0.008601236735740066 0.002540416730502986 
0.00725394160535698 0.01432637597364769 -0.01894598596580797 
-0.01118027916290633 0.003147782090021494 0.008186809718381713 
-0.01134995533231167 0.007608805709039108 0.002531624573339818 
-0.01399961566886926 0.01665611909525803 -0.004266562452637113 
-0.004782288203355323 2.288999113840909e-05 0.005589627912667017 
0.0002350635338012333 -0.005555448570040407 0.0007695161921573713 
-0.006932362750766795 -0.002129867811971621 0.005942180175099982 
-0.01795366830373649 0.001758940099248186 0.01623355598445523 
0.00254675228909427 -0.004888954341180199 0.000411388042571579 
-0.007320822425784522 0.002184650622542467 0.006538508483996616 
-0.002713795816807312 -0.004677595274536185 0.006906574747572039 
-0.007636089183013288 -0.0080038567829991 0.0136128596750106 
-0.005568643460482058 -0.005063138214765366 0.009056567812576846 
-0.001271449917606919 0.009395754619306505 -0.007278560053829808 
-0.006256908255249658 0.01304174858410392 -0.004475913999871314 
-0.006117714088891149 -0.01134868285877461 0.01594574710657911 
0.01098024669411048 -0.001102124977841267 -0.01255650062931075 
0.001465020632858559 -0.01168083582082256 0.01032939382288763 
-0.01525191428861667 0.01136778034041813 0.006745754236724234 
-0.008892135115621785 -0.0004834284229142126 0.009073044729922847 
0.01025716228133249 0.0131257158902484 -0.01992391096633914 
0.00634165976343142 -0.0169084463865091 0.01130118254329302 
0.01130408155655113 0.01866907361205485 -0.02772134176926945 
0.01825097792965802 -0.02042009107865639 0.005885412720769217 
-0.001886668481945116 0.019230668289042 -0.01891197641468444 
-0.002074942274870681 -0.007550843934056228 0.005476876126584399 
-0.002288778444907933 0.003823221243068347 -0.003802879809337628 
-0.03404620455783786 0.006244113926916015 0.02520764419546745 
-0.01941255738862527 0.03861060811879552 -0.01127561661870402 
-0.02501375450747047 0.001403048495201678 0.02628330113946517 
0.01836460629247222 0.02260824870499969 -0.04304762759743554 
0.007186456620761498 0.01466570429899545 -0.0146418186460499 
0.003647564659536285 0.01336855534825183 -0.0172228306727424 
0.01226336076753095 6.46660704124993e-06 -0.01102681537445718 
0.005232384074610043 -0.00200134416114553 -0.002412092172799474 
-0.01093783473614247 -0.007066597254734788 0.01334412990156437 
-0.01224749846354776 0.01683851975383241 -0.003512460513879408 
-0.00489445086411666 -0.003092741714850064 0.00809775730634432 
0.003776851549384702 -0.006322912738613479 0.004192271804280143 
0.0131288355295845 -0.002651594468688277 -0.009047479463209575 
0.003325229217923216 -0.003741849828681682 -0.002035593742840321 
-0.001000570544053437 0.02427806654634946 -0.02296509690764512 
-0.003958445199611857 -0.002479526994193172 0.01044625887626829 
-1.948782695593119e-05 0.01889316855274894 -0.01592283323081492 
-0.001692895248213477 0.009907355708488462 -0.007090056006196536 
-0.01445335759445045 0.0196153278298955 -0.003680260505713443 
0.01750243537011786 0.001490756656473695 -0.01225321632937409 
0.01368095648734288 -0.00821054502472336 -0.006450476136240758 
0.004527638369580936 0.00936982273314761 -0.01372383336628593 
-0.02010378631370435 0.01571232666681252 0.0004583703392520901 
0.01989182030579432 -0.009599904519686304 -0.01239643525804537 
0.007065813671736884 0.008026502877135234 -0.01437015139017904 
-0.01505642138849812 0.009486429642276566 0.001321288370520936 
0.004472516773714208 -0.002192835057331523 -0.006086201685835248 
-0.01493808881525424 0.02324126233176313 -0.006218394143943299 
-0.006298475801234201 -0.006181713679306241 0.01302158777410164 
0.008711916888833124 -0.008586255299424786 0.0001643578708159006 
-0.007967005918927014 0.005974029900011272 -0.002013218716598549 
-0.007056482633068699 0.0194198533856215 -0.0165840029207926 
0.01086687150641767 0.007054024797118969 -0.01761109139486134 
0.005667744197898662 -0.005658143229747242 0.002506568576494499 
0.002482115221618852 0.01492328262312578 -0.01852928141100953 
0.004103172733254064 0.04349474676032895 -0.04808654043384028 
3.949104571687511e-05 -0.007659750765890361 0.01136803661918402 
0.00792239385308861 -0.001660334682126133 -0.01085861978501045 
-0.01061766656333152 -0.004237250720316369 0.01271530369885669 
0.02499127028877509 -0.007914004205323778 -0.01352585615332115 
-0.003460596794456415 0.01179458401964635 -0.007649541772367735 
0.007525942429994349 -0.01564772253682697 0.009694978078455267 
0.01785024564019384 -0.03279279227332722 0.01237691835428599 
0.01233314886430975 0.009395267331044316 -0.02090042074130868 
-0.02626621429987901 -0.0005297239081454723 0.02313427534013077 
0.001154554433985335 0.002603563824775436 -0.00448501589336587 
0.008702038936308892 -0.003975633737229045 -0.003610129173934736 
0.002722909932676502 0.01753158111566901 -0.01861198665754368 
0.02058211970140492 -0.03362605631508608 0.01333870406185658 
-0.002659645418562692 0.01379829432668232 -0.01150816212493749 
0.007108343040309193 -0.005061508765716712 -0.005875286832274037 
0.0108723233587581 -0.003720672726751767 -0.00855027573299625 
0.008765024337808415 0.001070152074116751 -0.009865731948492079 
0.002639982649361799 -0.01609933640643789 0.0109921639005549 
0.01224250679542765 -0.0047773426493607 -0.005040554068745559 
-0.01893927064848951 0.00968640429269493 0.005229128311436511 
-0.006776261931644164 0.0006799756181492656 0.006621684499744381 
-0.0006637852706334418 -0.001884494995184192 0.001548754919581699 
-0.01278957677136685 0.01665560461161012 -0.005458982168670091 
-0.007482564160126194 -0.007669879016815981 0.0156839329934613 
0.007479576118622195 -0.01166456612925005 0.005765136381816712 
-0.000882647442413456 0.004199129900076328 0.002381285901832782 
0.01740042258994317 -0.004082753127283028 -0.01156808727658955 
-0.01635493089507456 -0.02768438695605427 0.04582187687067588 
0.009109403533657474 -0.02028124247341636 0.010043784842133 
-0.009029023955388927 0.05101544641806829 -0.04118638765096053 
0.004653729692344758 0.01247365934478045 -0.01798566522226661 
-0.02537787614004263 0.00350517184789791 0.01892390865350293 
0.002387983054142024 0.01196125889055703 -0.01301960533535996 
0.0186893331113611 0.006596632880090623 -0.02865703478973049 
-0.003789263104676188 0.007447685704338033 -0.006396967728008279 
-0.001418978123451886 -0.006735204451441146 0.009288302724335331 
0.007669375552205979 0.0112333332810367 -0.01780183811443687 
0.002276021378995333 0.004032809620190623 -0.007554156849723482 
-0.01215372407798225 0.02008356261869977 -0.006479662748772976 
-0.0009925077536928997 0.006816892106409713 -0.004046903397738298 
-0.04048021730472748 0.03059732425580548 0.007948078407351828 
-0.01230648504393809 -0.008275968502806333 0.01717848967545385 
-0.01179392830484308 -0.009284869102185506 0.02203140158606817 
0.001549440923797099 -0.0263591692124578 0.02349575871107295 
-0.02226476767608054 -0.008491803092139883 0.02439836983872398 
-0.00443660193504038 0.02059804542497197 -0.01683632727000122 
-0.004854172101288683 -0.005771043168778874 0.0104474738675188 
0.01231476513354237 -0.01873880559212705 0.005173039006642229 
-0.004418088630093772 0.0003732604300580987 0.001643770885573209 
0.0183999468494591 -0.01169170036805045 -0.007374008808501704 
-0.008461705035429508 0.04124553047414163 -0.03134597019618942 
0.0003510705661416222 -0.002611281565968487 0.00260913551414786 
-0.001504115517556305 -0.02346226238328603 0.02556608599110837 
0.02250687321110942 -0.006541685643335887 -0.01492977968493047 
0.02046093201042883 0.004020417687902519 -0.02228764520488948 
0.002832192249854332 0.00612093687886648 -0.002989582731374085 
-0.008770562878620807 0.003165478226642916 0.006795714909138929 
0.007250065069398359 0.001708036089817756 -0.004267789668929618 
-0.02194029113531856 -0.01395499095562254 0.03294427262664382 
-0.01781139845534515 0.02433955140581431 -0.005179114545821762 
0.01372724537865827 -0.01245983445432525 0.001879743745132613 
0.0220270390217646 -0.001067998396520008 -0.02530742686871372 
0.006157608308311953 -0.01997541447401009 0.01047929315435245 
-0.004855721315500394 0.0006027784199046951 0.006844296578439298 
-0.003419254373784059 0.0159773287396166 -0.01181663032827101 
0.0003103240250487919 -0.0003504407365833378 -0.000230550785877967 
-0.002866696453629333 -0.001899576553789617 0.004132611444542664 
0.01246271416374471 0.007518231886006194 -0.02398675177015847 
0.02036230713597346 0.003735855264085341 -0.02024308178150786 
-0.007560718455714856 -0.0005611260210048467 0.006193014568224521 
0.03579141651340387 -0.02235062832248956 -0.01507978634181946 
0.003729761878225947 0.001180939437660388 -0.006102921162392592 
0.01544428408818891 0.0003326049977817479 -0.0177858514804193 
0.00461232145986813 0.006998074488256147 -0.0130696500068075 
0.02067226705464774 -0.01079177931552666 -0.00986412060986609 
0.009762568276896814 0.01443070918579381 -0.02173106433018175 
-0.0001337208297056375 0.01411111236144034 -0.0153482382734397 
-0.004387084646854368 0.001505448564725863 0.001242106255989618 
0.005523807282038631 0.01012857512832996 -0.01167304268773419 
0.01464801577676988 -0.006540920116785899 -0.007497268107437062 
-0.006680058904611661 -0.005759834279903284 0.01086834209036883 
-0.01203125838166116 -0.007756091684746813 0.02047113257175824 
-0.0395415903888798 -0.003096676953108232 0.04208728125371181 
0.03154549288494217 -0.01171071978997599 -0.01739321113259855 
-0.008307863472577644 -0.0105557192936507 0.01977810310070667 
-0.002663119168881723 0.001974210670383101 -0.0001396072791188683 
-0.02368705154729969 0.002771310630530302 0.01411110388884722 
0.0171974402582542 -0.02540395609524425 0.009048033506093659 
0.01516118018898978 0.008689913020578723 -0.02354401620422758 
-0.01589446586251959 0.01491929747188906 0.001202657898638765 
-0.003053828973386679 0.009482374104440637 -0.009239122147433564 
-0.01615753703510283 0.03376664745722395 -0.02055542817317249 
-0.003768887263317558 -0.01274325552793817 0.01638780789110976 
-0.0214029040990928 -0.01634748064429201 0.03786412950212038 
0.01300889186774743 -0.007024421047455588 -0.006917075165901316 
-0.01691631933191462 0.01836273053226311 -0.002761693708664283 
-0.01491760010317289 0.02530233170104263 -0.00910987671606584 
-0.03361399988938282 -0.02846356425640924 0.05653349041561104 
0.01039021901147589 -0.01402487479995856 0.003832257919917545 
-0.009992751327393998 0.02170846402819349 -0.01195234864365302 
-0.001945062288724152 -0.01217299867580633 0.01447301920257291 
-0.01474339928898763 0.0211764661587664 -0.005652064388687692 
-0.01114457324270778 -0.02992268180496926 0.03597952557787226 
0.0110073721085659 -0.02582680312781842 0.01508309966570802 
0.009729161941427596 -0.006558030356992566 0.0008636144713977481 
0.01488222506670712 -0.01961604112188349 0.003725043210115507 
0.01574126554045579 -0.02688175178402867 0.007620248034130946 
0.006933675971910443 0.009982502819364655 -0.0202418222882902 
-0.0007285156979753098 0.003435903053527525 -0.007748476515439941 
0.004581653962568992 -0.01819904662983184 0.01121593337442396 
0.01003016471362765 0.008329571917287873 -0.01503442654906609 
-0.0007141725228735075 -0.004993822621405393 0.008233222259161049 
0.02211770290192546 -0.0006239671386783896 -0.02054452568970143 
0.000312988256845964 0.01543252969656042 -0.0127438922333162 
-0.01478989456717709 -0.00296183835703473 0.01744192871316421 
0.001225328119271053 0.005607031394809306 -0.004855836978377683 
0.01880707983440022 -0.01314250799674023 -0.009864176648894048 
0.01679228035383903 -0.03206813754600237 0.01270401069507331 
0.01956115653816017 0.009437134024231707 -0.02543359365524015 
-0.01387583586269058 0.0218955981513936 -0.009977645402922107 
-0.001671500939686247 0.01082141908687436 -0.00999644043200233 
-0.01750800805190681 0.01132101611481721 0.005250465793545132 
0.003519221593361549 0.000546771135922177 -0.005315449966882696 
-0.009769378409818511 -0.01859500066535058 0.02787712101032717 
-0.01387033231533743 -0.00141232784312901 0.01840562824257017 
-0.00334750166272016 0.02471268510036606 -0.01624516234087812 
0.003942948312867995 -0.002484660686047111 -0.001755109871724457 
0.004110507097769718 0.002414879235261734 -0.006780626351161606 
0.007241891917056723 -0.002118877611926638 -0.005883787159262516 
-0.0005264560758349112 0.002509410397659485 -0.003926254029666322 
-0.005831963041720412 0.008267621643527423 0.0004536206103276186 
-0.011588064359009 0.01895748732611246 -0.005868536423772878 
0.004831246672705903 0.003403392592568811 -0.01053873475746924 
-0.0002097735171974657 -0.004361291923418687 0.001987369277978495 
-0.02060205294691535 0.008811398700535005 0.01543225005594871 
0.000197272802393456 -0.003337030107173811 0.0009059293606508562 
0.008640542472339781 0.002330851776980282 -0.01317660557551679 
-0.002859366754788714 -0.03086127183081155 0.03134669806976274 
-0.01114809756313881 -0.007689492669864982 0.01937264630522822 
-0.01112316740886273 0.0048263238759356 0.007559031648515983 
0.001297543591236079 -0.008444821192922232 0.004368107196126739 
0.01200455482670006 -0.02689355037218654 0.01253411193326493 
0.002541242907063857 -0.01149270460370674 0.01272784536750294 
0.01024961342079243 -0.008127696348935428 -9.418630958029568e-05 
0.01676840836220055 0.009933890598123253 -0.02810212814511978 
-0.01970457337092795 0.01219528686745927 0.008692409788481122 
0.02069157308190103 0.005588651517832847 -0.02711867408731558 
-0.0006207551811428193 0.005399799693936154 -0.004741165183151757 
0.006451872683041563 0.008740314747706847 -0.01363319069013937 
-0.00227698524325305 0.01528248438140214 -0.01099418072611755 
-0.002885163804311549 0.008237288141859721 -0.002279609650699167 
-0.008082276310140609 -0.008151760475900594 0.01497052853552055 
-0.00793155725877653 0.0005069181034822438 0.008086158247676995 
-0.004490216154462996 0.01464953760655937 -0.007275959826280438 
-0.002311388546011306 -0.0006621490904353313 0.002629387269049455 
-0.002405821575910007 0.004700900717121074 -0.0005913700396252765 
0.01632481274425609 0.003494406727709104 -0.0219463478141615 
-0.004678161359546938 0.01014527383017594 -0.00507927577985685 
-0.02313777083989245 0.01546083983235799 0.004459124507566348 
0.004348026962460769 -0.01300402429749555 0.009108939695052306 
-0.001240687085783884 0.01973519028316375 -0.02137875360365128 
0.02210647257655468 -0.01685003906826509 -0.006117486857631283 
0.007249090610108088 -0.01566971221334892 0.009047704215461578 
0.003932363820348605 0.0006143951388766938 -0.001786820852511319 
0.00304270989358075 0.008221352652463702 -0.009958192025037475 
0.006500110697653909 -0.01271921211254426 0.004143307035901795 
0.01843779512115935 0.002805791971873728 -0.02209104921878742 
-0.00822252864633145 -0.01953219700697734 0.02439108847203905 
0.0123570341799017 -0.01537171466951125 0.00412669411384155 
-0.01597812061876466 -0.009887002267185989 0.02446397021603755 
-0.01394105671820959 -4.432878871670705e-05 0.01289530502238405 
0.007561385551993719 -0.007489424567591062 -0.0001468567179714437 
0.003633463328136829 0.01076822644491056 -0.008775434201361872 
0.02075298521767944 -0.02146085746438852 -0.0008198826456749347 
0.03754809530178935 -0.007014245270694559 -0.03419268352126532 
0.005821913760109571 0.005054390423642515 -0.01107864965251521 
-0.006863052960918552 0.01383275225870932 -0.008370183984535753 
-0.003575505154280812 0.003841088052622072 -0.002029676804023878 
-0.01025967775107859 -0.00718585652715209 0.01650276288629801 
0.005755066496026598 0.003399702897547521 -0.01164442905928657 
-0.00884754614580195 -0.007389464750394075 0.01442088063375434 
0.002364946041510728 -0.01410014468252503 0.006736865638052488 
0.006180966702101583 -0.003790916267030493 -0.009522282951193043 
0.00270618107171278 -0.002459190636386265 0.0003485580988999459 
-0.008770581247568944 0.005655778260527165 -0.0003413070701730828 
-0.01424353196655921 -0.002585646707781043 0.01410400875561021 
0.01449003217021551 -0.006568221692350678 -0.006210808366784634 
-0.01256970889010554 0.01352956668954378 0.001048113594379874 
-0.0006616015658620977 -0.009152355369277687 0.005519761084589814 
0.02052561039054424 -0.0225671465350485 0.006069511217109825 
-0.003600377115163024 0.009817589688900169 -0.005888285533512658 
0.003496709747767775 0.01150072760537899 -0.01667479585353142 
0.004597881939579817 -0.005805585431360405 0.0002687609042369442 
-0.01784627243217069 0.009422259406050685 0.009115300202447035 
-0.0117471492881538 1.110326482191692e-05 0.009716766384191501 
0.006216289255189869 -0.005706687534704244 -0.001232173437391848 
-0.006237399430202682 -0.002644666215536934 0.008510489786771528 
0.001704136625348718 -0.009977247828325169 0.002608706372273665 
0.002756000499397658 -0.01253372745514051 0.007445453140653387 
0.000494798534725277 -0.01503447232385794 0.01537407357100901 
-0.02824884523030181 0.006513783305110702 0.01623792542056371 
-0.008150357069789197 0.003189231537211176 0.008752977426831794 
0.0008493538862631246 0.005860204074939223 -0.008327762638793722 
-0.01837008482050343 -0.006936719169738621 0.01672169728961048 
-0.00461059643544274 -0.005013367137007973 0.007259880916882514 
-4.753555196713574e-05 0.002110776521854935 -0.007227061552920367 
-0.02137750388342692 0.03507395460691681 -0.01847028955235654 
0.003860359177264698 -0.01548509999218422 0.008091675231483969 
0.01068750038908336 0.01058040084217788 -0.0191670659762578 
0.008085461963681565 0.0006058328996071393 -0.005145932655433129 
0.006044219821423761 0.0174995855171027 -0.02524176284146951 
-0.006256538832217541 -0.01302103621323494 0.01803717134456996 
-0.004375576587552351 0.01065581663630041 -0.008449094809527871 
0.00598342604642836 -0.003840208670072086 -0.003632464445707089 
0.0001902146921477653 0.00136427029698692 0.0003546875866231674 
0.001591794402490425 -0.002404836668817211 0.003686392115600595 
-0.001872581204646843 0.006740949354625191 -0.01223111140383475 
-0.007556716281030754 0.01756378785398776 -0.01147405730001376 
-0.002349446749349803 0.0005988152901245515 0.003365007375409026 
-0.006319597954967312 0.009954789443996429 -0.001709581933631934 
0.0173123380406289 0.00844420324352118 -0.02464448663147877 
-0.002975266579676439 -0.01102694856503681 0.01021269104718095 
0.01233264192816048 0.006463046914729009 -0.01715264084973794 
-0.009565497750123554 -0.006401724328850606 0.01360017281973517 
-0.004279717798510515 0.0003938940640900697 0.002883511955311797 
-0.01311695979964747 0.0099484093474698 0.001570333544716274 
-0.0001926091731451608 -0.01035384870490637 0.01028529709397953 
0.001020949383016776 0.005376847267466131 -0.002270513502928914 
-0.0002397210727149204 0.001732047636814969 -0.003177089583284301 
0.002127007605758241 0.0004612056602530578 -0.001691746762325656 
-0.0002526120282815763 -0.002607918473597638 0.002187370384037515 
0.0001984137473342131 -0.004902925414035266 -0.0004524104729676932 
0.001823771349521502 -0.004335965021029918 -0.0004226975325211483 
0.001299417006441735 -0.003284329246339168 0.002233551982051211 
-0.0001490488621723045 0.0008500093466944001 0.002041882854967347 
0.00208462808060242 -0.001015436773927394 -0.002225582653282452 
0.002570699950230448 -0.000839116966477623 0.002798686411885417 
-0.001710781717523491 -0.004974297225819414 0.003582478267465237 
0.0008238259508036827 -0.001574381214126782 0.001001385352826972 
9.425202385922005e-05 0.0005192302267189141 -0.001603599592053435 
-0.0004184940165563593 0.003462612437061712 -0.001281913672852298 
-0.00130731275643758 -0.003429721641880322 0.002878111370793407 
0.0004588339331271784 -0.001660009838662115 -0.001528378215218667 
0.001425661970252909 -0.004493424869982237 0.001456534064984201 
0.000609573862251396 -0.00100021672127805 -0.0002599686447912176 
0.0005773718484419424 -0.001840142872807937 0.003048744232140157 
-0.0004159816815486251 0.005482164745741908 -0.001629608775257676 
-0.002459924698092325 -0.0007824607647547709 0.004660949179554104 
-0.0006498533948610011 0.00267733099635762 0.001955036876822844 
-0.0004379422448777694 0.002213312021052133 0.0009244162004644401 
0.0003484483885138382 0.001668025371166921 -0.001002326248684592 
0.0001625405234355941 -0.00422634782160628 0.002237670543216602 
-0.0001840179401390895 0.0005268045623248196 -0.0006113855074593925 
0.001330823343754173 0.002622339915049982 -0.0005209676306500803 
0.001917726292651093 -0.0001409648938259815 -0.002257688071275265 
8.133435182535579e-05 0.0001499188863979678 -0.001393326027335379 
-0.0001162872112010121 -0.002988864581657708 -0.0003184154153494256 
0.0008070056038140723 -0.005422011776603579 0.001500563484769637 
-0.0009495520314705885 0.001290194902488755 -0.002399218491013654 
0.002682896795205895 0.001304602546750083 -0.0002454861991485354 
0.0003655512912984939 -0.002271199576120145 -0.0006070823086642384 
-0.0005907212846641031 0.003486578546251235 -0.0005524498836664617 
-0.001212522496489507 -0.002695836896134958 0.00420095814811291 
0.0006279241902626841 0.00186354269603557 -0.0001403995404380224 
0.001046682065072038 0.0001557473827388873 -0.0003687630191370496 
-0.0001308319434636266 0.002485447290876041 -0.001813194521691439 
0.001718018554939479 -0.003686705226159252 -0.0003213913766071439 
-0.0002178248712276026 -0.002268404724420695 -0.001461624783688303 
-3.708969941530657e-05 0.002418705986291027 -0.004653935264769106 
-0.0005522201348050332 -0.003280392777226078 0.001484605809226508 
-0.001269529056859258 0.005469170880219944 -0.0009833302914197214 
0.0001010001568860484 0.00243326336101808 -0.001959994948800712 
-0.0008878588399062152 0.001210511942908461 0.001042363930231329 
-0.001275247580754734 0.005401408947669552 -0.002417233299083671 
0.002082536414845217 -0.0008460595163344647 -0.003843744847639425 
-0.0007178224946249075 0.003447394588816015 -0.001486434770766704 
-0.0006467414314637919 -0.005024994575171454 0.005219049617428227 
-0.0004098812943618284 -0.0004436309985622877 0.004451502780159545 
-0.0005060082194926307 -0.0008674589814862062 -0.0001921329040729858 
0.001322369444501987 -0.002507290325834967 0.001162916513422057 
-0.0003191204791286122 0.003280265790094349 0.0009110984106386073 
0.0002950108249849981 -0.0004769204289051092 -0.003577708883351625 
0.0002158822569842037 -0.002293069280752472 0.001001315799006784 
0.0008233379088778392 0.002021017078175559 -0.00237039507272768 
4.451578235475011e-05 -0.002183938903934085 0.000213958552830659 
0.001305017356165672 -0.003466259296878206 -0.00221724116485379 
-0.0001809297890700899 0.002931752124934211 0.0001482456996622334 
-0.001007899115465515 0.0009666781360710165 -0.001805992613165613 
-0.00203195981402711 0.003410846875708559 -0.001875715467330882 
-0.0002104504900901658 0.0003971909271233929 -0.002144981117367193 
-0.0007523561926842833 0.003323615763136075 -0.002558884124814596 
0.0009127603629449477 -0.001304125501989495 -0.001452755675983401 
-0.0004541334018317417 0.004276579678293662 -0.003019309032173312 
9.056719108530647e-05 0.001515854011729515 0.001050464183059709 
-0.002074144677743858 -0.00222489880637526 0.003488362828458064 
-0.0008224498545094873 0.002159367812449353 0.001718653829283203 
-0.0006642388216126986 -0.001553138119284513 0.0004083691916549754 
0.001055952730491174 -0.001288905462091575 -0.002502458518593449 
-0.0001214237910453334 -0.0005427987463394922 0.0003319489323272319 
0.001013353582443862 0.0009664416247053562 -0.001417560042544855 
0.001048843727571939 0.004258211263957854 -0.005062215525698688 
0.001555966306913342 0.003985221916611098 -0.002425747600540609 
0.0003038193201498943 -0.003840059371194056 0.00314039488629588 
0.0006863513078919491 0.001418876020378151 0.002098366291973413 
-0.000311355153764158 0.001060746085747239 -0.001379404909306691 
0.002234696582626702 0.0003023292372614216 0.000373763789741233 
2.821448119992702e-05 -0.001180372458810376 0.0008647578135069459 
0.001478529871209731 -0.0004510031814408599 0.002891017399033297 
0.00194550789141615 -0.0003590690604644468 0.0005882212047704791 
0.001065197142702905 -0.002056115666270308 0.002695971362949289 
0.001223726480578342 -0.0007317492154868149 0.002150171141678274 
0.0003840674881288856 0.000759024239018205 -0.001415798738570969 
-0.0001576031055988056 -0.005630515675257477 0.001891749336754334 
-0.0003790438546325931 0.0007296264993912127 0.003365635734026165 
0.001609775908785777 0.002889091890258669 -0.002456797509476764 
0.002930635446297561 -0.0004175428775405104 0.0007185476085164581 
0.0008802308134803237 0.00204622570106567 -0.005394589578915089 
-0.000664471112708091 0.002861918226300317 0.0005384476486525352 
0.001370699140949882 -0.004239747787606899 0.0006631985060257667 
-0.0003974611492148999 0.001154208347645675 -0.001669419267907581 
0.002258197517890781 -0.002257836133992471 -0.0005974863607844551 
-0.0001397258766760997 0.000515793990562503 -0.003388718842500234 
-0.0006542169625768779 0.0004412628539902292 -0.001616887848163704 
0.0004750223030808206 0.002570097056562098 0.0002487788019924453 
0.001619679897724121 -0.00423558269943443 -0.0009047130378354387 
-0.0003899819875453868 0.0006401894624882344 -1.520102861191263e-05 
0.0004472151202627491 0.006458163587288943 -0.003199079656641748 
-0.01710706845880502 -0.01698608928033389 0.03637872730728758 
0.008507248634329218 0.008940115345000105 -0.01513453509736219 
-0.0020270832792996 0.0002362593994109088 0.00558484972348897 
0.0216689808633048 0.0008697864979164414 -0.02131113368141708 
0.00955138276031952 0.008340228324875928 -0.01667420738676928 
-0.004137276069677157 -0.005146118692790237 0.007204737969872797 
0.01915484463736929 -0.001390051851487509 -0.01538290079316181 
0.001976178634316204 0.01212096808975381 -0.0156368357492518 
-0.004116695930818346 0.01127453931834372 -0.008680525455601057 
0.005955418132609447 0.00193879760150776 -0.009010992572395116 
-0.009282611082695433 -0.007129430721287333 0.01454372311071102 
-0.006756748330733519 -0.01161324668090139 0.01630063755915481 
-0.006049710256170337 -0.00410192302974258 0.003769232153319077 
0.01001701987551293 -0.001092678293865013 -0.009452190014255736 
0.01089414828480045 -0.008280207887939506 0.0003897892131142369 
0.009254152187406831 -0.01313297327884461 0.001136228964187095 
0.002981183573797777 -0.006707792320481468 0.001115610138741528 
0.0008368618113491538 0.007783730843357204 -0.008578079993639864 
-0.003967885080098827 -0.001264538393620754 0.007115453329808991 
-0.01170418993953475 0.002872454339067237 0.006366816902457119 
-0.005734508579438983 0.0047117441596327 0.001652279964643946 
-0.01285534350114395 0.008168948941285375 0.005752247042786662 
0.001337722821534626 -0.006185537175503695 0.00630416870327002 
0.007575452325002507 -0.002599923821632046 -0.003163419408038078 
-0.03172729126707083 0.03428884348981369 -0.005056835761307569 
-0.00903179839566632 0.003644638037767864 0.001760970638673208 
0.004728263539211276 0.007210683633230989 -0.01095290933537989 
0.02113373575378814 -0.01846252100529329 -0.002270762153872836 
0.004947867128205438 0.00141377880583942 -0.003128853514931607 
0.006976455795848375 -0.003096552764501799 -0.003049042667245032 
0.003102686191758194 -0.007610774704570823 0.009381129761617854 
-0.02287833845335098 -0.007336649929604629 0.02824063078393041 
0.02292946837580408 -0.004318592466509773 -0.01585973817101569 
-0.01459565891424025 0.0220715720927056 -0.004889049550463681 
-0.01538290504398514 0.003250826606516032 0.006808328617344421 
0.002379946971059974 -0.0203423665464463 0.01811645668920163 
0.0007425637450935586 0.0008369228003328966 -0.0003582331744816224 
0.001372571828625137 0.006120856029346988 -0.007081659241878703 
0.001466420947748973 0.01025989024367191 -0.01528447251275738 
-0.012293497643015 0.002601777951385277 0.009718388095179279 
8.77439997607253e-05 0.003631687261146563 -0.004867537432997242 
0.01959351145178439 -0.005799038731669904 -0.009332521791591507 
-0.001171385999890769 -0.008316354098506243 0.008403952408104362 
0.003136570008413886 -0.004388104862770263 0.00426221056073886 
-0.008237043290622123 -0.005899577884640166 0.01031308724225765 
0.02367860278620504 -0.007015804874275245 -0.01520943292530972 
0.001186018259415152 -0.003243611123419257 0.006749710697832896 
0.01057045833363334 -0.00161483372740668 -0.01120360102081023 
0.004978301806421949 0.001734960374805918 -0.007380631816924255 
-0.01486518658217296 0.007540235362019529 0.00598149231238415 
-0.005857983054723118 0.004645243603445265 0.00171018790361175 
-0.00710901927642402 -8.849615172569713e-05 0.008050768846623578 
-0.01437011984980809 -0.003425722395888874 0.0129681541747976 
0.00609911271856653 -0.02290240407492305 0.01711400387900355 
0.006040028568155224 -0.004225306425559651 -0.004223121912838132 
-0.02485966687613132 -0.01482301950967149 0.03490329340617748 
0.007561583973318514 0.009654336761813044 -0.01733961018745265 
-0.009950109200229646 0.003259959998314071 0.004911475009175748 
-0.01942324889146873 -0.004359263708869915 0.02341211551734791 
-0.03429895904297437 0.02170372791351126 0.01074042115225814 
0.004575218738707444 -0.01064209294423075 0.007001054824421357 
-0.01790792371638411 -0.0218830205935514 0.03707227161520254 
0.004789269353894537 -0.009266571679472748 0.0044347932368238 
-0.01964067111940691 0.02380866100751782 -0.004274102737782039 
-0.000876270319887463 0.01047172180092188 -0.008877135253690147 
0.005637058118942813 -0.0251751108418137 0.0170342570866287 
0.006685958556466822 -0.003143506700491446 -0.00398178962194098 
-0.0156231442161388 0.005526274199098848 0.008022119832218663 
-0.0005301392894169395 -0.0008583993834518971 0.0033172681943714 
-0.002815331398329018 0.004955294924232838 -0.001298044625709992 
9.638059869509743e-05 -0.01147505874091009 0.008519691216415723 
-0.006091921865007936 0.004882150315569871 -0.001651687764777521 
-0.01322516744540752 0.005117268078573634 0.006117234159069646 
-0.001909173892355642 -0.01146566277597449 0.01062497300688745 
-0.01063511343932786 0.004150106922879572 0.004210735595727876 
-0.001693375216336823 0.006013439697711751 -0.007000899394944441 
0.003272428263037198 -0.01698628173552282 0.01659782121495764 
0.005981022029282395 -0.002900621886912617 -0.0003149148319421946 
0.01239888718695611 -0.0140364033387306 -0.001810537807463266 
0.006890663527372727 -0.0151152356071931 0.002663307914548375 
-0.00388760548104337 -0.01158210766584853 0.01383462702632018 
0.005396130631478513 0.01498175528984303 -0.01876925350644803 
-0.007208915753766385 -0.0002999715334387321 0.004143091172778571 
0.02247318456095159 0.003414939712385195 -0.02252500451833067 
-0.007837353070378764 0.0006397016667360246 0.006204218227047351 
0.0226792818043351 -0.004017476003485359 -0.01561899212626834 
-0.01023302741879179 0.01184312944710056 0.00214224361286187 
-0.003430227567438284 -0.003264946545053834 0.008410893245986992 
-0.01349812722522397 -0.01487684424697824 0.02693577634078295 
0.00270143041207203 0.0003465624739419789 -0.007409210274235735 
0.003435300573552678 0.01208396475689809 -0.01182223007205409 
0.003571444876369509 0.005190533358528512 -0.007552573433111434 
0.003643549769730095 0.003462337552689251 -0.01018243236697247 
0.004356956572219271 -0.005212397224796376 0.002516358495992243 
-0.004916723032951308 0.00499870560657475 -7.275212269789573e-05 
0.02359247552512788 -0.004006013712149504 -0.01470160321486096 
-0.008394401895474538 -0.02845805270073783 0.03409089744973555 
-0.005396874884640384 0.00611448329546787 0.002275934180208836 
0.008390294247633 0.003873943224339235 -0.0107292622675598 
0.007977725281620159 0.004614402378557874 -0.009553604479304766 
-0.01020204576680811 -0.002407376287355703 0.0126035182012859 
0.004699277338697762 -0.005394305017631523 0.003855893496635305 
0.006271920789329112 0.009386193379572057 -0.01617119110395793 
-0.003364908810134709 -0.01511218337428825 0.01945607510853505 
-0.01262746972821975 -0.01738658695889128 0.02847036661317944 
-0.000652353342366516 0.006092306562394817 -0.001104232914032081 
-0.002181990749262334 0.01562086943943612 -0.01095035454649714 
0.001902178321919329 -0.002726101164220842 0.003674862876850381 
-0.00341271188464033 -0.002422762207274857 0.00866687253087968 
0.007838556844174456 -0.01299861056174089 0.006163766460734956 
0.00958858664424184 0.003908312320533802 -0.009825362537062655 
-0.01698126325486862 -0.002529942546712402 0.01645979933715813 
0.01419501803051139 0.001803702134647491 -0.0113947538406669 
-0.002689677917795843 -0.01616481208236379 0.01832644549646297 
-0.009729852226720067 -0.001307636786809705 0.01063274518010169 
0.004429107239738351 0.016774402829137 -0.01652963699294623 
-0.00640489796321129 0.006885843115649532 0.00122062233422019 
-0.004900895221381718 0.003677545427725824 0.004596673648283393 
-0.005073367325074398 0.004192534094215489 0.004399870261173497 
0.009182583074145833 -0.005314684300338298 -0.002265959112066054 
0.01077328907337116 0.003094613743588204 -0.01079721996308837 
-0.004016264401046054 -0.008955056941929721 0.01335954466500189 
-0.01918073978697952 -0.01461058477172664 0.03296900543685961 
-0.00109528935187979 -0.01086241821369511 0.01119906054287481 
0.009677784027355025 0.007427497831133809 -0.01349790521382865 
-0.02253375725537051 0.00485535156778833 0.01898611938176572 
-0.005408633413624713 0.00941976873708404 -0.002739933788657954 
-0.01032927725592246 0.009281448385378623 0.002348362877438474 
0.0004995628800190533 -0.00167149399335248 0.002237129090092343 
-0.008069414078205585 -0.006824206846787076 0.01435911777641623 
0.003098099745407572 0.007538980099926219 -0.00876688398270759 
-0.004796483548883998 0.01512034150908526 -0.01100071604875776 
0.01337460436733037 -0.01342945302254129 -0.0002142684639064511 
0.001136630300797649 -0.0001747238966784645 -0.0006691646313108562 
-0.007814834111138664 -0.01256454690808324 0.02078066603170888 
0.0005354563880153719 0.006661055313685105 -0.008634216481036305 
0.01128979706687696 0.03998452504811188 -0.04569492044706606 
0.002410415212221301 0.01751479486456436 -0.01437700967501382 
-0.008861169161266596 0.01482088359994524 -0.002707317440276054 
-0.01311757152944667 0.01201832782733725 0.002855648727018407 
0.0005183299339492323 0.01759826041338117 -0.01610035250723593 
-0.003640581300882963 -0.01191531922714871 0.01675453632968893 
-0.001409767306155881 -0.001375231537350047 0.00565459135320071 
-0.00928497110031621 -0.002002818800243996 0.01452556218075038 
0.005729563832395213 -0.01337881815917334 0.01081472849433332 
0.002378631574176353 0.002435238992693924 -0.0005758586253827339 
-0.01382976491887327 0.01317757569586083 0.005464479447222673 
0.02251945212924196 0.01081077070461755 -0.02705760837847488 
0.01306430667533644 0.01755997822969703 -0.02648600588259171 
0.0008627281756981651 -0.001136524465591226 0.000746013003065845 
0.02050915298386816 -0.002089664537173819 -0.01766405287381588 
0.001169014137048688 -0.003764440708985064 0.003607377108827844 
-0.01045004714658552 0.01056301528661402 0.00353312989745362 
-0.008558902698928625 -0.007206014592360412 0.01948986041776686 
0.002510786668152947 6.823314673443734e-05 0.001050404577841212 
0.004008971143092446 -0.01931730287290398 0.01425565889846197 
-0.01234289390703014 0.009715359502103445 -0.0001118207718950495 
-0.01281932331747097 0.008721151495468645 0.001505353801584297 
-0.004895505012479083 0.001273156499504599 0.005973638497417569 
-0.01587376652576948 -0.001348093974043745 0.01629794675202523 
0.01903282045011833 0.01833050855955913 -0.03411072664418848 
-0.000793226952290462 0.01540176777323228 -0.01100203880230513 
0.01351380283953329 0.002388808540185469 -0.01291169705082768 
0.0006584894226131486 0.004936945806344537 -0.002621290467442707 
-0.004720124008303285 0.01495963793546496 -0.004170081318328179 
0.001191608196041556 0.0008418156612648657 0.001460714505672105 
-0.006677658647195527 0.0141710868029698 -0.004495083006477924 
0.003369525612406668 0.007288551188918187 -0.007908356301413962 
-0.02357710141681977 0.006338510055427735 0.02315285817886827 
0.01117082658508524 0.0152925113971667 -0.02158143636807025 
-0.01325106677953077 -0.006603020839615547 0.02073080289253234 
-0.01535178876127301 0.005485107756096074 0.01148635265592429 
-7.392216427747552e-05 0.01641691028828719 -0.01405873678212801 
0.000413187698767606 -0.002008130790569975 0.0008207960198600823 
-0.01264622574894613 -0.007879469671183414 0.02174173218341247 
-0.003939407177213723 0.01372870359674554 -0.009419553528258795 
0.002344711996997371 0.008726015429899824 -0.007151948237107633 
-0.01449790978371366 0.01232313894043091 0.003454933595280961 
-0.02861466813530461 -0.006224601218648745 0.03415835734931912 
-0.01227498413449167 -0.005447732113162702 0.01827755506956273 
0.002969748523113916 0.001541052318699392 -0.001312990646431699 
-0.00649627975346801 -0.002957066080208564 0.01094362658220076 
-0.004613746476077984 0.02311622509205854 -0.01918984714665541 
0.0001429383504879792 0.0003787284536070519 0.003076118289102374 
0.009421322027247036 -0.00448361648795794 -0.004166501549424076 
-0.03222513051443197 -0.008434102457449768 0.0393366748965077 
0.003700314727391378 0.008610158956229619 -0.007733534892514209 
0.03377991955445839 0.008662384732811952 -0.03685212158263644 
0.008586194466555929 0.005353065406884187 -0.01204814800277424 
-0.009981280352721928 -0.01292431259681888 0.02533098221101606 
0.0009969755466933418 -0.0007603461817902652 0.002728701267399541 
0.007591728294913786 0.01347052969237363 -0.01785761224291287 
-0.004683910749683296 0.008233935647597307 9.797997625024866e-05 
-0.001431083415001672 0.004840876029431939 -0.001296801497316803 
-0.008663746425141856 0.004114204265086127 0.00680130342365175 
0.002884429882345747 0.006112181765010374 -0.005877070764618101 
0.04088582649035998 -0.002289533157107967 -0.03525873520965062 
0.01732961841839372 0.0003872650138527486 -0.01712765856880379 
0.006076129320489029 -0.002659404350084232 0.001116342205169882 
0.01046294938758766 -0.002045605989538796 -0.005354164621396216 
0.007275402968356096 0.005398488868582126 -0.0131907952849742 
0.01757544560587091 -0.01667110338689589 -0.0006940189150465012 
-0.01158373127976304 0.03603883100836765 -0.0212919655499521 
-0.006229069560654311 0.00802236910664361 -0.004347196497334672 
-0.02054538586979375 0.01348579484850226 0.007619825249393943 
-0.0009923754583292337 -0.001503742272969699 0.004085463659495146 
0.004609136538379424 -0.0007654415191464755 -0.00227196206777154 
-0.001375189994970393 0.00014589838179025 0.001522438562166549 
-0.007853910216991514 0.009226618004196312 -0.002097455328641408 
-0.0002332314494114912 0.006717488442768191 -0.008419180972098038 
-0.001357232935197305 -0.01210353843397313 0.01130628825887932 
-0.007367189082394326 0.01309126157193773 -0.003719591715802045 
-0.00112919655604524 -0.001520138540214293 0.007900663837553591 
-0.0233468921023007 0.004713818072387677 0.01921328739513223 
0.00350410128481144 -0.009318885711245345 0.002426971541653528 
-0.001619534396413669 -0.0123093371602994 0.01730400885448692 
0.005870968941848094 -0.01403501252406813 0.01232073545482982 
-0.01378549759313216 0.01352753307431181 0.002208700172673763 
-0.01143188867160894 0.02737451876834891 -0.01398869774996522 
0.009527665134291865 0.001817979608577992 -0.005672939894354093 
0.006678045587934521 -0.01203476266782397 0.006496285630588097 
-0.0104199354384781 0.005016006412581592 0.007093282064773806 
0.00317654812597598 0.01156216163011545 -0.01025284201844169 
-0.01208869826941621 0.02486177667529339 -0.00729563997308731 
0.01246364000809438 0.0007326540233813435 -0.01231229805542519 
0.005145537273319688 -0.0136242365363916 0.01016464554651078 
0.01461716172210482 0.001315039135808205 -0.01407927799774345 
-0.00742607607553818 0.01396207884632372 -0.005224724283511794 
0.001853933252688197 -0.008677776916335896 0.007216121087563224 
0.009367288633609704 -0.005434152320484804 -0.004427077985462024 
0.01113092600013318 0.00391525825774692 -0.01312286031125559 
-0.01871820812752201 -0.000418953058613305 0.02121086502035318 
-0.01172041116909795 0.02432293406918654 -0.01258067907773902 
0.006557492503972796 -0.02027873349943927 0.01174505683884029 
0.02228563163947062 -0.006486479047154902 -0.0151430553229203 
0.01117815765514555 0.007166299118922455 -0.02004178460114756 
0.002399326618136862 0.009388095135224896 -0.008807687017800487 
-0.01539926789526103 0.01340762078971221 0.0009014983212807328 
0.00843342844010905 -0.01058256191129582 0.003835174742771384 
0.01411856063324661 0.002857311937861116 -0.01317283397803891 
0.001383483029005279 -0.007186558702979725 0.003863990159938321 
0.0137223164374805 0.003201060536743909 -0.01070027745052726 
0.001996935879273465 0.0045038557382645 -0.004681816957238115 
0.01438850533542441 -0.007889972256901176 -0.003954108577736836 
0.01213610053963048 -0.00947799872993365 -0.001105422692086756 
-0.008440104906771849 0.008946003599968467 -0.0005330152807023327 
0.001003475623263338 0.001687109200680854 -0.0005817903250535377 
0.02804517944166967 -0.02144348432997345 -0.007831531265310377 
0.00794217661118784 -0.00804604127888264 0.002421391101562466 
-0.008425856515674521 -0.008354471618719451 0.01740745151034061 
-0.004435291017782584 -0.001071437011168862 0.002604118091190274 
0.008380586366246825 0.005612300636926183 -0.0145525616905073 
-0.001279328337847567 0.002535058605414537 0.00121373195364671 
-0.01922553501967949 0.01355490647471947 0.006428187920097787 
-0.01480775360135989 -0.002560628953314554 0.01742982044249396 
0.005036443112978719 0.01447949948406581 -0.01717351425805996 
0.01630966139132011 -0.02247770138424045 0.006812235828038859 
-0.002777368277970703 -0.008978328096187444 0.009311852647625478 
-0.002263663791890705 -0.009446390360192219 0.009171341264350909 
0.002641648824829815 0.008111584373225409 -0.01429194369785274 
0.01662438118862945 -0.008264163200821385 -0.007139272801353401 
0.0147064162987951 0.008013608362091366 -0.02286301060721195 
0.01398663032340355 -0.005918282785167466 -0.006129718160231691 
-0.005219437057607587 0.01083195980320645 -0.005269767105868132 
-0.01938540087753862 0.03109403145735288 -0.01413231452895517 
-0.01793510161215737 -0.008571853391911259 0.02488864382112831 
-0.007631874524279962 0.01062280036667322 0.0002535695403259861 
-0.01716801693395117 0.009610587468950488 0.004888256257467661 
-0.005946874635916524 0.008795715855845357 -0.0006740918724765969 
-0.008800094960487843 0.001866065991853327 0.008936303403257009 
-0.007167341718768231 -0.002876807931510418 0.01034693033859353 
0.01277984798436236 -0.01106671229124617 -0.002969887106737852 
0.02193703881507905 -0.01123879591530813 -0.01113042351184918 
-0.01166913502764459 -0.01082318194255171 0.02112741525863011 
-0.0173586780278765 0.02415792331558806 -0.00513345063841742 
-0.004414712664185719 -0.006954547673459476 0.007757728820737942 
-0.008279112822962382 -0.001494403085776061 0.005090985108947127 
0.003589256645191877 -0.01751007749451382 0.01779351462273989 
0.005314040889211209 -0.01283968833052027 0.008613181075123431 
-0.02208804954195332 -0.004697728662392837 0.02753138723308373 
-0.01811200554944504 0.01013762324610492 0.002334066394486048 
-0.007628062756377165 0.01573636963813351 -0.008855640517241635 
0.001471497096475767 -0.002346406872596562 0.002692209626717021 
-0.007136680021707592 0.004697999545213081 0.004912355390749252 
-0.01338622836459473 0.004213503045385424 0.0123284155817982 
-0.001003712160623189 -0.006770594508728639 0.006332272987278769 
0.007653431679036963 0.001010396469826795 -0.01060463134831785 
-0.008307724604516991 -0.01658271503174406 0.02262441300410173 
0.007592416859373264 -0.006450030190871204 0.002857864439728543 
0.0104468321551723 -0.003451443543905118 -0.009964676422025653 
-0.002930658979516926 -0.005915439938585653 0.007771434575413037 
0.02278765866003771 -0.001316866782359627 -0.01735156035210708 
-0.02936424653814789 0.0472129570661714 -0.01472930585021099 
0.0007309476737141359 -0.006079358186128933 0.008752497446292735 
-0.01645950707292511 -0.002778778249979931 0.01721742714639034 
-0.00565220165671038 -0.01133058851007013 0.01714357492123232 
0.006643983150792618 0.002943665289087668 -0.008013711063053409 
0.01157365224262409 -0.01059773680236447 0.0006720023433354895 
-0.01237267255780237 0.00564778010496435 0.006981274490765952 
0.007348967759457859 -0.01399309004081889 0.003735821194992807 
-0.008931516032794136 -0.001437131201364049 0.007247848373427883 
0.01166169168583418 0.005120976637384083 -0.01585014487287545 
-0.01484954921500653 0.02186142762788877 -0.005853706158864083 
0.007691394933330587 0.005804079852188732 -0.01317684345800614 
-0.006696509268955667 0.01666183837526682 -0.01098164873143228 
0.01690351144374063 -0.0007131549401079368 -0.0162194817592763 
0.0007677595048362907 0.009880704095999802 -0.009064091388417347 
0.001465756746505022 -0.003992440973413937 -0.004166415236105121 
0.001401473656475839 0.002190834839132163 -0.004562578921624097 
0.001319975635899783 0.01016727947225851 -0.009541404410058072 
0.006671631788804967 8.477050583594509e-05 -0.00535985453221953 
-0.007307242002481915 0.00997123633389595 -0.003126704904136344 
-0.0002131543653461863 -0.004081911033657065 0.001626017112071059 
-0.01227029385104929 0.01960690366058124 -0.007561825947442603 
-0.009222151008997276 0.006240679063973215 0.004409560482339428 
0.00704312194086463 -0.004885639259158032 -0.005703142760328047 
0.0004145255836438355 -0.005890811171151907 0.001191801322986374 
0.003322808260233252 0.02093575433786259 -0.02216815159819769 
0.01309639647553388 0.003431755639456393 -0.01607928049625959 
-0.0008404215370310964 -0.01283968023441761 0.01301835534791109 
0.01064776874777914 -0.003900583952138516 -0.009913675408793012 
-0.006723860981521705 -0.01152290584673217 0.01629719031469372 
0.007797324747840112 -0.01528383689680575 0.005889360888695096 
0.006399766264668267 0.003783501302434224 -0.01136327717909424 
-0.002017505796984342 0.01059640439132572 -0.007575149890886569 
0.004393445880031676 0.01368076749899735 -0.01727293806722287 
0.005548393506687724 -0.004997987190219219 -0.003756763140920467 
0.003527646984638412 0.00395473678127538 -0.008032697610213795 
0.001464843502612567 0.006598195349107816 -0.007853748592840111 
-0.00399851585435485 -0.003352733486373962 0.006003027544212931 
0.01330403296494003 0.01787799938480153 -0.02443578906692376 
-0.01040211023222618 -0.02463604027026029 0.0345192260721915 
0.007681049730443885 0.01308867681430266 -0.01579296787207086 
0.007142757042768351 -0.003380921459040986 -0.001728272761554228 
-0.01807900312114162 0.01121780855688424 0.004250076507275469 
-0.004112956023619353 -0.005887412160273995 0.01046533282746199 
0.002464409796581198 0.004042108838036388 -0.006530752630308979 
0.005201678961712802 0.01066442564645115 -0.01596519840366712 
-0.002292459734131779 0.01437238005499463 -0.005069291845726302 
-0.01322327033098239 0.006534274550197725 0.005858848881277679 
0.01082715110342615 0.0114096974512665 -0.02410066244867276 
-0.01310260392443344 0.01192470744685558 0.004629290294739362 
0.0005629822312641132 -0.001122955301392426 -6.881869309260133e-05 
-0.01315135744861381 0.001192990531875251 0.01424945397891723 
-0.007442585195020038 0.01316266772104969 -0.008163417996250108 
0.002274655409881522 -0.002442717486292498 -0.001129465041020311 
-0.002009469134846602 0.007619649907130287 -0.002666341174988819 
0.01660708015297092 -0.001457742177967698 -0.01504871648264683 
-0.005239895748045992 -0.006027897992080761 0.01419062020394665 
-0.005157886285316091 0.01308871470076478 -0.008078275448282091 
0.002268410354736862 -0.008821085401356369 0.005835835341068926 
-0.00847271909657285 0.009314111841234853 -0.0009381794710425838 
0.008133684428480047 -0.005633524755886519 -0.00271420527724072 
0.01217821496338264 -0.007045451187119648 -0.003151462774446858 
0.009704013495226078 -0.008031384560601191 -0.003053932016595491 
-0.01784122909576707 0.01547573308692935 0.001358741030873185 
0.01119797689453434 -0.001793249227171894 -0.006819091913028789 
0.01393992529644094 -0.0138696373473163 0.0003954570064433913 
-0.006871181515156929 0.004028223851970965 0.002351112303470273 
-0.01965610638112491 0.01665379786441685 -0.0006901232610683639 
0.01694169516397953 -0.001566233310962335 -0.01753633882839551 
0.0233104682956045 -0.01757111733384016 -0.005503484701126249 
-0.003634370897300425 0.00942302156253067 -0.005392834881331352 
-0.0173905794070892 0.01303133989949292 -0.0006192184412073697 
-0.0180194544439249 0.01513615035627138 0.004416222969617662 
-0.004190866575296323 0.01059414193920537 -0.003694568063312244 
0.003895287128057793 0.002349532605367171 -0.005159041429975528 
0.002161760158385526 0.005938524278465556 -0.005435682753463596 
-0.0248057700199771 0.01488785807697506 0.01062083041512499 
0.007270677071521872 0.0006794892290893671 -0.005691851377184626 
-0.009397227727729281 0.002321066861095993 0.003841584974870628 
0.006075740274658842 0.004612754649026098 -0.008588133348254938 
0.002123989174042905 0.0225519421552197 -0.02552531341361368 
0.003283691772523089 -0.002805953602336917 0.002186102603690508 
0.003738553258845118 0.001631605961783712 -0.005521932404339794 
-0.02105486325892167 0.007275119214221989 0.01179296492686939 
0.01021304647309918 -0.02430861639014413 0.01412260832310067 
0.001766026868933026 0.01041035236581474 -0.01202921783885444 
0.004148583844063329 -0.0005731163287440814 9.199844590955167e-05 
0.03037169675632322 -0.02564705275401882 -0.005271700025487798 
0.001520714674673107 0.01614179905654048 -0.01458321667209097 
0.009077093785615966 0.01431355580107041 -0.02655190457851818 
-0.004200609953514432 0.01300599989116482 -0.009813615329220258 
-0.005304313693889652 -0.009164693567129978 0.01147873596191318 
-0.008714079795561845 0.0001461556419442928 0.009115395637549404 
0.03376104043414022 -0.006988019197075264 -0.02408826433186902 
-0.00364534816550378 0.01772941921494153 -0.01684405340610845 
0.000702826644020721 0.001797132992218721 -0.002778089975020917 
0.008337075411755265 0.00187573332637217 -0.01270723069181084 
0.0128680452929448 0.001951168988608397 -0.01643902298229913 
0.005850835144935459 0.001799261664198915 -0.002398177457247754 
0.002902135173857298 0.004175133869690035 -0.006864344986556304 
0.001247816939455682 -0.002626222008279102 0.0007063402892248292 
0.01338388410818809 -0.01335708635072422 -0.0004039795623598811 
0.0004705716630466765 0.01691949251548507 -0.01543158444010668 
0.004032940704032248 -0.001287031022785694 -0.00541112736056435 
0.005559192706144946 -0.005599184099724354 -0.003756580152696459 
0.009228739025902438 -0.005706337980940655 -0.004236400263891517 
0.005396948938873771 -0.0003370791201018654 -0.003310121372546332 
0.02659959522481757 -0.008816690747904823 -0.01785040738278661 
0.006221844113337054 -0.007590054256419313 -0.0008776157126747651 
0.001559261218499929 -0.002129536915729831 0.0001050432502147073 
0.0283424903305493 0.01320599662808405 -0.03613446481311122 
-0.00298493381001562 -0.02586827041853389 0.02494428554007821 
-0.0004802858405434485 -0.009542514543027368 0.008920666315778186 
-0.004606432714938955 -0.002965950734713793 0.00606973800926927 
-0.009697864769632717 -0.002804852732123045 0.01251055257598852 
0.01277692738199956 -0.01290673771368292 -0.002080805332729217 
0.004934422797030239 0.005142435801725256 -0.008483346255526556 
-0.02007547891525148 -0.005615082328851296 0.02044623056945126 
0.01299464495814319 0.003780665752854375 -0.01862698461423936 
-0.01998714911480858 0.007741040981633179 0.007786360342830766 
0.02383372094225777 -0.002829504962826127 -0.01819604332589959 
-0.006186573047352055 -0.004006799872703625 0.00706576527992608 
0.001060653823469308 -0.005566299991742522 0.001794047352326938 
-0.001349721709250572 0.001071941295909464 0.0002260697587790775 
-0.00318028575656975 -0.01517711257605003 0.01529929621564065 
-0.02937011234806359 -0.005597286512133705 0.03413931808078931 
0.001224243431275017 -0.0107397222219884 0.006825742551529467 
0.0005498301882744565 -0.001412315165818004 -0.002347226242243104 
0.0109710558862182 0.002839022606030045 -0.01539617228612469 
-0.008520587882132686 -0.003362923071738559 0.007275491060175313 
-0.01411326396418547 -0.008131794315910133 0.01736005949010585 
0.01731747629190786 -0.002407723340258241 -0.01394455577084887 
0.007058886310252209 -0.000146810234225828 -0.008988437974579211 
-0.005449636137616976 0.01277971508129521 -0.008785573654035213 
0.007240442840788295 -0.01009726907655945 -0.002668008574786586 
-0.03530963529629827 -0.001321326949668577 0.03435399597206515 
0.009444061281955156 0.0005595428463069092 -0.01203545896606608 
-0.01030302387483208 0.005315460276733552 0.002769866045111166 
0.0114275538645648 0.0139360103606769 -0.02566475189374562 
0.006987909206417854 -0.001993650967317025 -0.0096379135426386 
0.003739207931557723 -0.007140612973807184 0.001410742522771892 
-0.01186954132870213 0.004767005897578306 0.005298597841331958 
-0.007751507002487988 -0.007830582368872567 0.01101423221216655 
0.006567091336988649 -0.004284421677346044 -0.006038159538523018 
0.02320360622380691 0.03896529476619534 -0.05589438592335035 
-0.006831077516112537 0.03481402370860728 -0.02397541831981086 
-0.005917996202411458 0.0006899055146397255 0.002823685190566827 
-0.01875834521706381 0.009088429871745782 0.01126023277487293 
-0.009069842908169558 -0.002481065306373874 0.01168998687520628 
0.00175655203926 -0.002672180362247481 -7.078409312006002e-05 
-0.003709879229924682 -0.01050069513363271 0.01213864042498491 
-0.02324006058750321 0.007835157684544725 0.01091091640752988 
-0.005454218203930144 0.008691004029302712 -0.008176110317817932 
-0.004710827936619518 -0.006205158336369638 0.009749652258653645 
-0.007372133294122604 -0.005908793392265012 0.01185916333750246 
0.007603689131359251 -0.01266775604854612 0.005017478436723037 
0.008159729984934732 0.01964152157289047 -0.0288789956819565 
-0.005463037872862586 -0.007716495675313476 0.009582086270252116 
-0.000304891453617847 -0.00492590784302503 0.002880819398851664 
-0.01034757055798862 5.937875920392051e-05 0.005989061019744973 
5.441278308786289e-05 0.0009607424230638453 -0.003667969583293917 
0.008131337238663685 -0.01348634740904183 0.002147048244664039 
-0.01424779099863714 0.014139062582174 -0.001670948512774177 
-0.002320101492707167 -0.001673355547834925 -0.00069798974726649 
-0.006961206413595173 -0.0004591632282410417 0.002768361756040809 
0.006294205572952199 -0.009866000891366121 -0.0004895117046733925 
-0.04224549252801831 -0.008014850899485372 0.04525091147197806 
-0.01481683741115298 0.001828838375046504 0.01184184412143437 
-0.003902616684875918 0.01756811552480256 -0.01091190229845675 
0.003160512257684433 -0.00477171466846354 -0.002033656643379048 
-0.001082894529311548 -0.00690455213165214 0.007534068119013541 
0.007777531493071459 -0.001790164331499133 -0.007417192079667212 
-0.0142671461420276 0.02386742173016067 -0.0092631264951072 
-0.01211863907287907 -0.006632781281884822 0.01406408841480229 
-0.01668855645997339 0.01738194715965984 -0.002616010425020885 
0.01878963759973336 0.01197124538192357 -0.02805218744483849 
-0.008475409843991538 0.006038893357168547 0.0007417074640931928 
0.001796300147627692 0.01433563713317946 -0.01674279031821126 
0.0004569293717898662 -0.009996484984871297 0.006444191485799537 
0.002930978132916 0.004361476035179957 -0.009418371573553481 
-0.01582999194484546 0.005536052098276865 0.005481736056463272 
0.001045048684350321 0.005606431180842457 -0.005860027914643256 
-0.003279935159542792 -0.01029491705365301 0.01095223450261726 
-0.01563222651203831 -0.009290231695162233 0.02315810161452025 
0.0002690706530340832 0.00493703195891894 -0.007692550476933981 
-0.004209895003448275 0.01154987803261443 -0.01084387627696842 
-0.009517328088416014 0.003325333541530346 0.0008797253836795914 
0.004347516342922674 -0.008643681038107021 0.00282215687303072 
-0.01381179064295553 -0.01161872093860518 0.02289868245939717 
-0.01274115769938236 0.009785921045589995 -0.002225318004913469 
-0.006041353386166591 0.01390009105023142 -0.009436246325149904 
-0.02341153618050175 -0.002964294299891712 0.02829008042483115 
0.01000746680476122 -0.003710205143815256 -0.01010400888412272 
-0.02280380161608702 -0.0004314293038381334 0.01938921040012622 
-0.007067655182054453 0.0058678891173204 0.003242465092878014 
0.01488128731680661 -9.003936850633916e-05 -0.0155613471661477 
0.004545494191591692 -0.01565448834726237 0.009129156826600475 
0.005273680773167871 -0.01023510775796215 0.0009002831818486575 
0.00579656903408942 -0.004797461372152226 -0.0007626312402589366 
-0.015524197403991 0.001580195772996177 0.01012369132657224 
-0.008832438824276584 -0.0118814889288652 0.01723026364547251 
-0.009552426736599144 0.005839357013234139 -0.0003654169091918662 
-0.004869964483769641 -0.01262820845407295 0.0160355544828985 
0.01295919727299587 0.00270270613070349 -0.01535075867314832 
0.02400453410297329 -0.01593838056859528 -0.004962092688971508 
-0.003214621503464516 0.005437790932288921 -0.003895463952674907 
-0.008997649992327402 0.01128508164963777 0.0001852718972016683 
-0.001190287352561064 -0.01882864175902403 0.01556705649215275 
0.00517758390003151 -0.005569270547815757 0.001977009740744315 
-0.0005201015884279984 -0.007227240069323028 0.004829605534545194 
-0.003677105556547069 0.02014974433880257 -0.01377219860711106 
0.003277150819570515 -0.01187817730199875 0.004927319011077552 
0.007914043959839513 -0.01543710279301587 0.006421292551697121 
0.005401005159625039 -0.004591975215295909 -0.001785988009552916 
0.009538347653246957 -0.01414239301647583 0.00215028198783636 
-0.004188341881119948 -0.000478515440638458 0.002028253818679032 
-0.01502443481349322 -0.013710522086217 0.02846067759122782 
-0.003634758639635106 -0.009660134410222274 0.01276608462885952 
-0.007401072141911314 0.01883445556412129 -0.01285854438025791 
-0.01075793058238195 1.402013905775732e-05 0.01037531948433794 
-0.01848556061845694 0.003355606490441039 0.01591548841268452 
6.207739429158199e-06 0.001285977719231572 -0.002708547059202904 
-0.001871492456097572 -0.004375390027626006 0.00550774990883513 
-0.006584547873493261 -0.0006182423740704321 0.004149396367311875 
-0.01013295881372273 -0.004223678968311153 0.0138245674629863 
-0.004149067815776177 -0.01168805723021458 0.01573290054809494 
-0.007637049581298638 -0.007957241768521212 0.01188213492987041 
-0.006477717155130984 0.006326596563299237 0.005097020826462123 
0.007547341170449926 -0.01225574750642677 0.001330280644207699 
0.0002124112007285461 0.002281345844149445 -0.005961010502475068 
0.004216796606677922 -0.006783679767025172 0.001287655099450604 
-0.01687123401192129 0.02227472609481713 -0.006480953744908673 
-0.001134306289488543 0.007939987963834867 -0.006045158926171121 
0.003534475761424828 -0.02131216160019184 0.01482993915627277 
0.007990460388620646 -0.003296785292002343 -0.009646077097071331 
0.001140180988044264 -0.01965553861489775 0.01818444199352383 
-0.01746926568102201 -0.0008893257412441402 0.02028193359221355 
-0.01232119384385269 0.001471775334610969 0.01257869094141923 
0.01115114283785597 -0.001866458294974173 -0.009071884282623618 
-0.008968058049583305 0.006430830633816589 0.001707204921944175 
-0.002742293223853491 0.01662396989304374 -0.01187284259141663 
-0.004869990080113543 -0.009585568807616907 0.01611202269990823 
0.01209422561322958 0.0001443960638416989 -0.01410053235469475 
0.0007701582613682511 -0.003746145366032899 -0.00150714823720814 
0.003958540452030266 0.009413962154076045 -0.009945330684388218 
-0.01759178444280406 -0.003026018847875317 0.01939085503464231 
-0.01861827440736279 0.0080541624519816 0.01321985761755806 
0.01457345549055316 -0.007666849309295282 -0.004100753837271842 
0.02648187364963549 -0.0008450706306237105 -0.02657932153266498 
0.02378259795388647 0.01959626461185119 -0.0391873214950736 
0.01251489780684256 0.01856135598195731 -0.02901839921890072 
0.00928041652738484 -0.001647827714317044 -0.007912819926475287 
0.02191843608663585 -0.002857056470352018 -0.01815309606297252 
0.001573136722071725 -0.004981893350144148 0.0005535410141338383 
-0.007380222864091313 -0.0008647865112801423 0.01084953871921257 
-0.01690620746165972 -0.004421916587262037 0.02007713194366932 
0.01626058556634111 -0.003237379172253737 -0.01089650167321147 
0.01152640296554918 -0.01738340283756556 0.006011841938843601 
0.003793173281119867 -0.01475256220413926 0.007318726019526814 
0.00204706459975625 0.02168662994042212 -0.02419367338814159 
0.005493322770849058 0.004396449394295673 -0.007774171003628979 
-0.01111543760493452 0.01444329201743154 -0.003144142854345229 
-0.003708017029643981 0.01181366335135224 -0.007661294352661851 
0.005715305340260012 -0.0007388814747016478 -0.003306891082904841 
0.01688818307231727 0.002268681699573505 -0.01696451424707298 
0.002380838407753056 0.004376571123592354 -0.008330267655138363 
0.007449328602590924 0.001414537024029748 -0.008810125600229967 
-0.01853555837651273 0.01494318330085598 -0.0005236528843554838 
0.02863870602462913 -0.01604801031892581 -0.01331282692978458 
0.006683375152612609 0.02579996677969746 -0.0302583821123542 
-0.02623887945607303 0.01084837318211233 0.01265198736847441 
0.00556061920903226 -0.004539844399798339 -0.004076039172139213 
0.004462517918113291 0.01090858858305173 -0.01228532075723736 
-0.01143861062290599 -0.00748199521922964 0.01876084620439877 
0.005041821940862142 -0.0009627698675938262 -0.004548132372146103 
-0.0127870197432674 0.001595947731674098 0.006655874395615596 
-0.002078611727053632 0.003776704751860753 -0.002995853899796811 
-0.001450936037768631 0.01991247756420539 -0.01721905657822299 
0.005353144751115618 -0.005687260623994357 0.003895471019002337 
-0.003200270490536786 -0.005055637748673658 0.005908390264942133 
0.0007781411467413383 0.01434615211284638 -0.02043460118358828 
-0.003193314159694592 -0.004662203483786547 0.009177102146204517 
-0.002049351887712985 0.006543210257905908 -0.007120536996012779 
0.0002816997239479961 -0.01383690141998089 0.01132969116373653 
0.009863371962657894 0.02271153366004431 -0.02799409929955804 
-0.003051916049872302 -0.00398061711538291 0.005975778587865822 
0.006035316840140462 -0.01775910395486533 0.01041509143218579 
-0.01944582913966861 -0.02585005202749375 0.04513092521722482 
-0.005533232155452344 -0.002899324503395915 0.008201881579341921 
-0.01856366862750858 -0.01692912658284448 0.03310324191154436 
-0.008139411655585366 -0.00284560308791163 0.006840217950263423 
-0.00583277320796932 0.004987822997657773 0.003203909528389811 
0.01401287137778548 0.009999088930691088 -0.02216696376269548 
-0.03002502750975724 -0.01150980587260387 0.04128669100251661 
-0.003084445942522586 0.00969139926604002 -0.006911037650374242 
-0.002023190152148192 -0.0106735291135729 0.008444459224024621 
0.0003966074845873945 0.001844107627211666 -0.003146077678882685 
0.0240196463422909 -0.0228770501838306 -0.004040678450560476 
-0.0008011061716904119 -0.01745426946618653 0.01350495664098263 
0.01743771998705123 -0.009795516445395416 -0.007049216683635071 
-0.01995289125699551 0.005195794601297541 0.01066243410476759 
-0.005500062497511769 0.007341317177870913 -0.003278542821813355 
-0.004848429564444328 -0.006621477322710108 0.008760673943475912 
0.008436064944926524 0.00819332494409235 -0.01711659720751476 
-0.006782236191912618 -0.002490231429196215 0.009718098196697486 
0.005621261478106327 -0.01906544264996143 0.01269838096775957 
0.01652946884505906 0.004687136351104608 -0.01821424029277889 
0.006408164992701119 -0.006495683816002813 -0.000550252736569749 
-0.02156093446650647 -0.02040481522426887 0.04187436355095703 
0.002417700342502562 0.006029627167933464 -0.007739962055833001 
0.0001594959754458731 0.01168737105123674 -0.009648388051661553 
0.01665311649446142 0.01296024063216476 -0.026873365991285 
-0.01034322162052461 0.0118937021408895 -0.002644075587471856 
0.01220077418720997 0.007201353431941145 -0.01912199776741752 
0.005409238401534046 0.01548654380232376 -0.02033255125430431 
0.01141160846110568 0.003483622596371741 -0.01581702309977918 
-0.004811910132313528 -0.0002144368125383382 0.006835711133077741 
0.018873329431978 0.006746479433389116 -0.02540220967162344 
0.004140780142673398 -0.01182202482128962 0.006781557308770047 
-0.01287905019804386 0.002632249852601729 0.00858715677305296 
0.003872086273736911 -0.008908636854958461 0.002619846451946677 
-0.01243605320464617 0.01541989667228163 -0.004940157889499926 
-0.004146218676974274 0.01076923980820125 -0.008028100308682305 
-0.001188007077792113 0.00114934056003176 -0.001840692385125336 
0.001824898714022529 -0.02841860590646064 0.02145893583076681 
-0.004957951155740852 0.017885914490825 -0.01296966537285168 
-0.003761028376265852 0.01403088741759114 -0.009531810719118981 
-0.01235318012010533 -0.009545428687552725 0.01964102981692683 
0.02285784482477804 -0.003731087842830666 -0.02134742726354949 
-0.01736510214755527 0.009724586941448034 0.006898197275086603 
0.008209327544481726 -0.005326240947707406 -0.004173372334662116 
-0.002255271818878161 0.01005427982876763 -0.008945947843011542 
-0.01308874520391626 0.01561526716808662 -0.003666316790129861 
0.003850185540910178 0.01199665957143538 -0.01527717007330301 
0.008097793139369437 -0.003829475748134833 -0.004670728723242056 
0.009520328611684043 0.005773611516092372 -0.01492212627586209 
0.009611300653959706 0.00404189830107016 -0.01009550756328418 
-0.006347365578601327 0.009738140711974482 -0.004286455080434533 
0.009247979812024583 -0.008771527685144755 0.002623608026339449 
-0.01937461338661518 -0.0007864887731661948 0.01661174431497883 
-0.002866780512919759 0.00930520404065751 -0.00336336465367196 
-0.002072877281720105 0.008100396831830045 -0.004464332272346975 
-0.007395803370322655 0.007238342324014276 -0.004465571503595046 
0.005591238133901055 -0.01611422738853926 0.010400607723857 
0.001676897512746505 0.003064213936300426 -0.004810191042761448 
0.006444102034308022 0.02111538402856749 -0.02732064156327092 
-0.01084213858373613 0.01490817439180074 -0.003090965980419827 
-0.01490108706315305 -0.0004631430013773701 0.01296814136135445 
0.004808916062804762 0.01149845067640701 -0.01952105074935208 
0.002753532228077768 0.002835567257938547 -0.003635239004989074 
-0.005061817030415853 -0.005929730791900146 0.006721265836019378 
0.001937291291050368 -0.007100972233455407 0.008808039538144649 
0.003465560432860346 5.7034881524652e-06 -0.008320742087993977 
0.02600362562316986 -0.007039118781741345 -0.01849261717036107 
0.001336923172128129 -0.007127219036996373 0.006918136781016633 
0.004639285500429525 0.001197545672409328 -0.007800211088212115 
0.009374345763501317 -0.002268678279642131 -0.007168278571887823 
-0.01089525976249758 0.0113905940302076 -0.003023048170023657 
-0.004430332762457625 -0.0005452110339063936 0.005599883963406073 
0.002496935952387567 -0.003141795221046805 0.0004699980942865151 
0.01730238458860277 -0.004911031908767794 -0.01263457212092418 
0.01362352491183513 -0.02515570800857462 0.01548510498938966 
-0.0007761218486787853 -0.009857436912082228 0.01095001379193163 
-0.02156828885424331 0.007529895746754045 0.01318268175496084 
0.01580615315739229 -0.02145937564002445 0.006757876457515041 
0.002728411449583181 -0.01535618160491749 0.01382209545343649 
-0.009705856101348113 -0.002247233697979952 0.01202308057811974 
-0.03320756588375324 0.02267046959354359 0.007105009745598762 
0.004390965866098702 -0.009779025975061634 0.004383757558106095 
0.01151772126043651 -0.01767534699970643 0.007804734738069838 
-0.009700379552610631 0.009471997567018846 -8.081524128288876e-05 
-0.01782497507765271 0.01594528904326886 -0.001913321094762663 
-0.007775351090613102 0.01339911234727402 -0.009154778802305264 
0.004718352159695964 -0.01147837439518444 0.008069600242282539 
0.003713268380084955 7.682438555894013e-05 -0.003706829847598526 
0.001427889195414352 0.004356925127772721 -0.002051490986703547 
-0.02702051402615679 0.01427733444966407 0.01566302157617378 
0.001776859675200902 0.003008810256626594 -0.002737258337244466 
-0.0212084847191992 -0.007824814000764768 0.02366481302319452 
0.01111506250304618 -0.009977389121883758 0.001458142917797017 
-0.02750049517210352 0.01163074284062978 0.01156732147740782 
0.0140090948171566 -0.008452453704939614 -0.004002627954245793 
-0.01283211894781453 0.002535711019484135 0.009580556213763148 
-0.01970824744891542 0.0008932495448875497 0.01638442142056325 
0.009222157452228857 -0.0196607878396339 0.01313806475008221 
0.01180756328758986 0.0014290429038821 -0.01064647733617844 
0.01689110799433131 -0.01434183589408189 -0.001750643645547927 
0.01485285892729308 -0.02260872161678008 0.004313588785850244 
0.005835196839066474 0.005126708010275257 -0.009284835165580631 
0.01204452369438168 0.01530033321648091 -0.02816614422945827 
-0.01683324319424786 0.001198611592979986 0.01025037300021351 
0.00447552827405683 -0.009186475898546395 0.005777668503432217 
-0.004242056937554638 -0.005617461569479563 0.01069613339717711 
0.01982141073189074 -0.003016901626070477 -0.01396330140529244 
0.002688618590827133 0.01774476310552736 -0.02072316957336021 
0.0007798201775984457 0.0001080297626311662 0.002645710192713665 
-0.006911134394860376 0.004230447207042097 0.0008011563977224048 
0.03279006760493283 -0.0130713137593741 -0.02395714150958642 
0.0006395251210589234 -0.00176523965270745 0.002092173051554703 
-0.01035571853819947 0.01202641716999337 -0.0005210352009951106 
0.008702904673931531 0.001052288030191698 -0.01219320382886748 
0.01050722295685809 -0.01014544166954599 -0.001962240493452445 
0.003485155332925329 0.01897657678688486 -0.01806974226988237 
0.005115970764602941 -0.002923212433965389 -0.001369475471402259 
0.003060529221789121 -0.01190298143044313 0.007540844762946827 
0.004830076102688647 -0.00386084334428149 -0.0001223210897121238 
-0.000110680012967335 0.006498001804479509 -0.005716735519629025 
0.00661845324531725 -0.0006647079166442175 -0.007088426062418721 
-0.001610182165005181 -0.005118605572904437 0.005551108023397447 
0.002899371960521014 -0.003522944167538376 0.001705924125275336 
0.01816780023359443 0.01144504884882508 -0.02693126185094284 
-0.00318377725468489 -0.02023957111735044 0.02207228292673989 
-0.006009951331239697 -0.01311331438170599 0.0178201256684881 
-0.001906491666732444 0.003219263832642858 0.001171171877139583 
-0.006558528971326554 0.004891470758993371 0.002711062257570583 
0.006653798896115511 -0.007174458683619394 0.001159993083968837 
-0.0005699650557601719 0.0001536659449485398 0.002826126489464211 
-0.001201335626829317 -0.01060746409778622 0.01078909653538254 
0.01099266942428215 0.003855690865169997 -0.01345363590063688 
-0.01760304134362322 -0.0004054778318052526 0.01466580317467261 
0.01802971959764058 -3.96172674276695e-05 -0.01410058241969126 
-0.003728439889515885 -0.01255317752302378 0.01498135439320311 
-0.005786244782861935 -0.00286403645500806 0.007402459475176495 
0.002288204650032971 0.01095703746684189 -0.01032207492287344 
-0.004647682332239196 -0.005137143958423695 0.008892658014146395 
-0.01567381519469254 -0.0004058468076055071 0.01760325445913932 
-0.001293822653300008 -0.004769103028669717 0.005855750235180411 
0.005276245431907479 -0.003548857586957066 -0.002302724412405937 
0.01089569505271607 0.002936450340526549 -0.01364348402730749 
-0.005754469375688008 -0.006797084567122966 0.01101173836427261 
-0.01692282725932387 -0.01172383280763955 0.0260141391670811 
0.004811985377729682 -0.00814991629339651 0.003132337502644865 
0.008002932274336733 0.002583558807552042 -0.0106140039696199 
-0.01351518824503626 0.009038554268038129 0.004325670124162184 
-0.002864269554786127 0.005493885674005667 -0.002725447896476634 
-0.02698319089374899 0.002212767213021834 0.02368591012407615 
0.005739234279293129 -0.0003645695320180244 -0.006123717691145431 
-0.00933140527292531 3.462377229914219e-05 0.00781128051906798 
0.007418155314882556 0.01085677417440056 -0.01753091215284162 
0.0007437612983542543 0.007074460198703365 -0.01036000661695024 
0.007794187858312368 -0.009787191341855215 0.0007268392847909247 
-0.004436520150145977 0.001942795872003485 0.001888039315732213 
-0.007796483994151639 -0.01119266914811766 0.01795038743662552 
0.002941064300348541 0.002295654120501819 -0.007598832041360707 
0.01724436779634602 0.0394751127448052 -0.05079265767035391 
-0.001747860738988444 0.02529869843078668 -0.01869587281883948 
-0.00695749042811894 0.005680820261280051 0.0008701883958807459 
-0.01669836264041354 0.01015838012112879 0.008190952189729928 
-0.005471836764673537 0.005053772427598472 0.001261553342645588 
-0.000728369813040372 -0.006927853464823071 0.007675833765747281 
-0.002056895268553239 -0.003942702960948487 0.007478886881761255 
-0.01808790377963007 0.004203017763399324 0.01224543374776517 
0.000610105292284348 -0.003276198884740257 0.002121533685071555 
-0.0006489493307931111 -0.001254647400441431 0.003833670403893857 
-0.008466115211092072 -0.002675364069765087 0.01077583029153257 
0.01578955961951413 0.0002174008395761182 -0.01258552894204807 
0.01166945684418272 0.01815197672073093 -0.02716660607688187 
-0.000859315475089878 -0.002927803519650632 0.003151462142497418 
0.01160909151729105 -0.003302428552932885 -0.008879104917696548 
-0.005629999289308543 -0.00150697000307194 0.005013429021608846 
-0.002231861829734974 0.003050692809669548 -0.002100683925722121 
-0.0004168331937678169 -0.01026980128763679 0.01102945687415256 
-0.0006822949149448323 0.002749207452117637 0.0005318936598257872 
0.001112934481545343 -0.01124385290005812 0.00741323089657752 
-0.01106648849798593 0.007302200648250553 0.0005712959624785786 
-0.005576330899502192 0.001677616142368599 0.0007494169024146434 
-0.01686442251530834 -0.001703211135990116 0.01856015467931817 
-0.0153389100587422 0.0002595803780968624 0.01404295423553037 
0.008650968082749774 0.01798539349512816 -0.02360963936381465 
0.001758466844963548 0.002382142297115957 -0.00521401234181619 
0.008398331420871565 -0.000868080734837282 -0.005746405852585158 
0.00357500896076022 0.002180998337755694 -0.004586075373734663 
-0.01144044304177328 0.02123001460739053 -0.007755197965734429 
-0.003016130505622562 -0.001521125184562197 0.005445001474217169 
-0.01152353353390741 0.01572531318210662 -0.0035854678619473 
0.007354660554685811 0.008498733192172137 -0.01311427645878869 
-0.01247438044477921 0.006118230884788925 0.006676243644092333 
0.005646931881334242 0.01472869135034296 -0.01873030042874818 
-0.007974862921006805 -0.007909144155532056 0.01523187035597047 
-0.00111839488674375 0.004610360597656235 -0.004788284166004698 
-0.009876661425899241 0.009647301228863165 -0.001901491829683716 
0.0007686777283574755 0.002275862056599387 -0.002937872683814135 
-0.006689448843483485 -0.009415652141237265 0.01487982750405926 
-0.009918853725327487 0.00195732027330208 0.00723994219267279 
0.001645646111108852 0.007449861717642533 -0.007334012077274565 
-0.009517078209815207 0.01194879439434094 -0.003467698727809793 
-0.01576092077677687 0.0002031319133448507 0.01175966912367875 
-0.005184793094928582 -0.006810938337437111 0.01168518080418335 
-0.005806681441297709 -0.005341303938255553 0.01134929762081412 
-0.008757948093205048 0.001658023997020939 0.006174262859119298 
-0.005545212069041171 0.01710298543584789 -0.01282592917402341 
-0.01401928544562064 -0.001631292609720648 0.01823613222492506 
0.009691974644150466 -0.004126468311365631 -0.006908167084416755 
-0.02751018002692309 -0.004429121118433162 0.02935387088536572 
-0.002569040126342138 0.007013557492717519 -0.001343072370243523 
0.02181818884041382 0.003122628749478595 -0.02337631661104488 
0.006928643075363467 -0.003264530987101124 -0.003360918684986668 
0.0004275460386218958 -0.01108939388060948 0.008661318069805272 
0.002557054240198617 -0.002072610483900111 0.001593871194198855 
-0.003295425692810504 0.007870424968018758 -0.004678970289710366 
-0.007716448158344166 -0.006470355363732236 0.01262159166480001 
-0.006064129302664941 0.005410466555242121 -0.0007654440695467426 
-0.006767673990092108 -0.004253415763884666 0.01141645406471407 
0.009023534920533337 0.004034601991248166 -0.01164990786041495 
0.03342137323505848 -0.008324690674541469 -0.02186236883628577 
0.008334597821135119 0.002598575304143198 -0.01133412220816774 
-0.000355254542488513 0.003290133311388373 0.0007191172737392969 
0.00360854104529763 -0.01191734058841719 0.006951651021060399 
0.0008720523105500116 -0.0033182911123789 0.00401901716768914 
0.0154554868036591 -0.02527116976295568 0.009941281014853205 
-0.005791453354425121 0.03461975333943933 -0.02787204948514013 
0.007150629141997775 0.001281575476846456 -0.01635689656638625 
-0.009863588756454916 -0.0003324173170894921 0.008915114192913923 
0.0002154280047144294 -0.005391133052319154 0.007805224622812144 
0.0108026755981465 0.004594595109149655 -0.01882413673290154 
-0.004456724698384924 0.001230941884287402 0.0009643712908048099 
-0.002158170391719944 0.008225270159682659 -0.005756070724804622 
-0.01131441607878543 0.000535868840689123 0.007181300254291038 
0.003478504269137467 0.003050985984920492 -0.01135423782873682 
0.003970670305894714 0.01767312815896855 -0.0200480395414145 
-0.009568430126331217 -0.007007405036166058 0.01764205182367058 
-0.007484824687176312 0.01285595750218931 -0.005726266136024008 
0.008617373280669421 -0.01283612355571059 0.001928900178773033 
-0.006638177474129298 -0.008271553396292448 0.01487043698155832 
0.005558742017056336 -0.01388194908593197 0.01027403035280709 
-0.009853752986136274 -0.00588933952846787 0.01517288470663023 
-0.01605617331765072 0.00749947716400474 0.006308697871890085 
-0.008938910792173021 0.01254195407226261 0.002785972662266572 
0.01083317913354511 -0.001991114618954483 -0.01131650751069695 
0.009250285264917509 -0.006207718543997941 -0.003325076527430147 
0.01497370648360403 -0.01168357601863403 -0.004203142639360538 
-0.009278510884362479 0.0303596001980957 -0.02078590750049429 
0.01922707939664955 -0.006715055718089035 -0.01322533081142047 
-0.003246021142119442 -0.02653124865370819 0.03059489530504912 
0.01889365753369423 -0.01245121580301076 -0.008510533781004487 
0.009872308348593631 -0.003337544734894446 -0.005716805475718439 
0.00335385769411913 -0.003692859315679068 0.002227621592020909 
-0.001390187356931007 -0.0003599774683876839 0.003591195810256514 
0.01145039604540458 0.00231694816989558 -0.01330424072117261 
-0.01614346113738255 0.0002148038205061074 0.01730112270519513 
-0.001523141295057422 0.01489118137533732 -0.01531666909172724 
-0.003988079707286987 -0.01122552802032968 0.01258425270290269 
0.02055983574777641 -0.003153123081095667 -0.02060580305564996 
0.003907749673120681 0.00755981022855825 -0.01371541302967446 
0.00424266752225867 0.01651739013860992 -0.01501103516956224 
-0.001418198722845608 -0.0008387187054625692 0.005315800425869739 
-0.004686651495119088 -0.01619707129648743 0.01901502571982016 
0.02288506908425111 0.006403993904143254 -0.02725605375498454 
0.00447723183254331 -0.001830919510332972 -0.006319320741030827 
0.02406397940653042 0.007248501344752522 -0.02843969731375129 
0.003510433996252984 0.01061514919745437 -0.01118413522051915 
0.01879124725944174 -0.008812781004441226 -0.01030051459410446 
-0.007236081484667869 0.004289803139804277 0.001694167724642355 
0.003735691621508782 0.00692982017817434 -0.01228002716312459 
0.0003074013343119693 0.001774587550605557 -0.0004318939346533096 
0.02619138329438671 -0.008188976068880048 -0.01744354065622555 
0.01995788934388012 0.004335938440715283 -0.02289678631285664 
-0.0119399630624462 -0.00302371517220279 0.01365275846499407 
0.001334712749764451 -0.002375886033026653 -0.0004608217649644986 
0.00892584068438663 0.006053654995952936 -0.0136452808145295 
0.004917019789325605 0.002080803175159713 -0.005177528945315439 
-0.02593038164274723 0.01384082026645015 0.01151924999115124 
-0.01680489422886655 -0.01222738697794467 0.02793063183029641 
-0.01067982007616185 0.0006124820528696391 0.01379325075263539 
0.01724878614882288 -0.01385024456481431 -0.003917872312175783 
-0.01551450349681301 -0.004146031118218381 0.01856535329637255 
0.005038363678631799 -0.005282892701937783 -0.003380794510776684 
-0.02006529391085831 0.001391708361365447 0.0137926010560993 
0.02814063826690366 -0.008623235973193347 -0.0180410114608825 
-0.001220743312496554 0.01989340095187811 -0.01720489470883915 
-0.01981851414937136 0.01368617121038253 0.004455139732641657 
0.005815149653172228 0.01132494061853374 -0.01882713289215194 
-0.01915252299135458 0.02138858493744508 -0.005632392290027468 
-0.01310494990315644 -0.005679326149929951 0.01632439681596988 
-0.01678140832808396 0.005237370395909113 0.01184071865407027 
-0.01041476795906812 -0.004719141439631659 0.01191827835681518 
-0.01207924106728596 -0.001873098667897745 0.01364223179211942 
-0.01653496608965231 0.01327549560588326 0.003872917327531824 
-0.0140254591841983 -0.01515809025960684 0.02602760807645549 
-0.003617166232576702 -0.01733044236653718 0.01653904107515208 
0.004623607708644654 0.008326946538369065 -0.0133608940943884 
-0.006532048928136955 -0.01513015233393105 0.01923821665170667 
-0.009761345559937852 0.01446797566690968 -0.0002872505966491052 
0.0002563498174112135 -0.02241500221117112 0.01587204161524961 
0.002187713173984681 0.002569382245678961 -0.003041621262819157 
0.00436267751325478 -0.009943138581228507 0.01038928811295689 
-0.008884189609326231 -0.008302807928615008 0.01648166206374212 
-0.01632090103034918 -0.01801264575619285 0.03304445931232999 
-0.01706567417834683 0.01143433252682468 0.000206689434086901 
-0.009288634454002898 -0.004177560060255373 0.00897239313505919 
0.002932919440404604 -0.01123093659529201 0.005798422234302247 
-0.002981102190552514 0.0148522928402546 -0.007835800892132223 
-0.006858314505686447 0.007601528634346052 2.440335406977546e-05 
-0.0106419586041389 0.01452280079749343 -0.007105104592896956 
0.001951407276788267 0.01299899819989523 -0.01431427355302714 
-0.01282476218558823 -0.009144554800359932 0.01934177538824956 
0.004578823392114155 0.001086915385345003 -0.006423007627445493 
0.01681249890246634 -0.01060265709927402 -0.00915426376653994 
0.008594627823121549 -0.01865353106719844 0.008626959211125038 
0.02897721744920082 -0.002904814644843024 -0.02554978782842991 
-0.01828100517214133 0.0187011968283284 -0.003503235413544492 
0.0008064646614994746 0.007709300702665635 -0.01033003734057298 
-0.02787899062222238 0.008541145247552361 0.01580859525206465 
0.001279422619472386 -0.01020426205046074 0.007177510423007389 
-0.01171870248289499 0.004461903455642229 0.008215485121144591 
0.01023841249394383 0.0004714623461771592 -0.01064987345011787 
-0.005670662913519297 0.02300035797929489 -0.01593979704579562 
-0.001795078558084247 -0.008067569734735019 0.005837863446536137 
0.004997294799382129 -6.624837528090719e-05 0.0006371437317408183 
-0.01511415745541524 -0.00434245128423692 0.02283596894222354 
0.01338375515415225 -0.007815717036345012 -0.003281751595715947 
0.0190580158962071 -0.005611583479259876 -0.01342341521068075 
0.01144953176497218 -0.007524288214148786 -0.002052640727925508 
-0.01127678845426489 0.002444120465454011 0.01025017672758658 
0.01053308664979197 -0.005107869614860262 -0.005501854605939675 
-0.005685865685942108 0.02495820940514743 -0.01406658758251419 
-0.006541179060555761 0.00998906339511273 -0.004157662109430724 
-0.001655176364434101 -0.003278491372810479 4.667773911663337e-06 
-0.006036640541546129 -0.006740083856313599 0.008264816108096465 
-0.00555747881464762 -0.018237633494832 0.02100876072247864 
0.0001031050427883022 0.004553511173795 -0.006020904716909975 
0.028373071829683 -0.01722736362811787 -0.01357471109334571 
0.02444416680328257 -0.008850234327668183 -0.01338137031873586 
0.0035617484355197 -0.003380739996704935 0.0001487746506604706 
0.009522006803213847 0.001748709516129739 -0.009184198079462023 
-0.0009942384412280954 -0.002777439863599733 0.002553178717162359 
-0.01315635451425796 0.00282354045862248 0.009964406606294692 
-0.004217923294494808 0.01688227037154262 -0.01556596509996133 
-0.0164905917050619 0.02665972237094593 -0.007396699609791557 
-0.001813406745281536 0.02256040275955064 -0.01800370511245672 
-0.001178708108695643 0.00668894619515708 -0.003510241101874454 
0.001908619893577276 -0.0002335163661839113 0.001957633338028745 
-0.02957120474997216 0.02741242881197617 -0.0008310198232783112 
-0.01227710205463027 -0.02327162716070037 0.02875187582441063 
0.003286743951128785 0.009319539612764537 -0.008068005780855966 
0.03546862283224454 -0.01400617425325736 -0.02225231416876411 
0.01192823915037369 0.003585877224445106 -0.01110181878704364 
0.02066158022232239 0.002288283288365439 -0.02083876446731783 
-0.001401927757043332 -0.01771247756498314 0.0176456370308904 
-0.005708513405223594 0.0189775436980318 -0.01529420621046555 
0.008608987337068065 -0.004467991711887105 -0.003865354323594612 
-0.01917099290887511 0.02859743240425718 -0.008616176902128242 
0.01262883473275283 -0.001404190049409608 -0.01268182790983653 
0.006493115243965656 -0.01359622047610512 0.00698971790941081 
-0.002086398441653759 -0.00709939145516471 0.009648613659225687 
-0.002623409913342768 0.004307598627184413 -0.00160380222472854 
0.01232786138525291 -0.003257361818558322 -0.0173812610453 
0.005726753040029885 0.006586613734238254 -0.01048530036982452 
-0.01094857838981541 -0.005997349536482195 0.01807981267283821 
0.02590971862247061 -0.01840131190540274 -0.003820019228957247 
-0.01788237410057768 0.0001314870905996756 0.01737006923982626 
0.01139354054855189 -0.0005984125373143418 -0.01042624945076043 
0.006129819071071894 -0.01364391252110087 0.007041096312498503 
0.0109440504878062 0.004656483913359673 -0.01232896463810212 
0.01601317537346215 -0.01118262697985164 -0.002647947681145442 
-0.008627258980688965 0.00765041968607792 -0.002436603165165418 
0.006307547593361115 0.00685352089083179 -0.01362765654814393 
-0.01761950816826276 0.01033843754579214 0.007065350852492152 
-0.0195227081561872 0.01003942834502964 0.01199687888331008 
-0.005413001115058276 -0.0006805065572212351 0.00840148198572044 
-0.01940123108312389 0.008665307482312583 0.008481630243665744 
0.004372531095835641 -0.004465964836061628 0.0008434571981633703 
-0.007569059041840988 0.01233188362415849 -0.004289829507929706 
0.0001096184894294091 -0.02296346451645925 0.02012704213157543 
0.002579050123069337 -0.002490413884862749 -0.001266727549194359 
-0.0110264977403727 0.0194729028317361 -0.008226545600164132 
-0.01538494960039397 -0.004805004223971847 0.0206435891151624 
0.004728003957686338 -0.004186733362020006 0.001075066186222945 
-0.0261419365791792 -0.004157463863428712 0.03047261404588319 
-0.02449204340111395 -0.001460389834103296 0.02545550984581878 
0.01456830304270209 -0.01371372300304866 -0.000905366411973553 
-0.0007312858432569086 0.02364417419898768 -0.02222816228783968 
0.01662218213621907 0.004963362625695918 -0.02399499238240992 
0.01047443040747584 -0.02770227253132833 0.01229910377030132 
0.0003871990665085184 -0.007048452079465475 0.006413271170138616 
-0.01407396353249533 -0.001350504144993886 0.01228319103175015 
0.01055173797216605 -0.0116240117824554 0.002068192919823329 
0.003653667965479701 -0.0006178826299366614 -0.003087176644208937 
0.003556175490244466 -0.01123923239473438 0.005312545349609683 
-0.001890097915590613 -0.0005077967855054931 -0.002538044280982028 
-0.01143333635097362 -0.02304429436840523 0.03322388825229282 
-0.003761840890177411 -0.01239506393664866 0.009671568484941698 
-0.01452792972608435 -0.0005511578572735249 0.0151207728443602 
0.02740237808108996 -0.0006334905763799409 -0.026829342049219 
-0.006053515621109906 0.002572241106407218 0.00253062833013158 
0.005814116962454324 -0.00717725982936921 0.002344566448466188 
0.01108840163323917 -0.01071651833851617 -0.007283781476151001 
-0.03844762115549336 0.02620420477008807 0.008660274556231588 
0.00261200839368786 -0.02783040654436291 0.02320942459623003 
0.002788092394990596 0.01152537534775609 -0.01145915395431407 
-0.002213087159124697 -0.004301555614793585 0.001027143931122178 
0.04198110471781367 0.02052956978057453 -0.05384442221429885 
0.003462525009990074 0.005415948042969934 -0.01359212226520744 
-0.01256122744394331 0.01123139770692688 3.918116331425131e-05 
-0.006596805292918507 -0.008065986056597153 0.01759956791184479 
0.005076662217447197 0.0003504353195813681 -0.003802242676141435 
-0.02060980846815343 -0.008109540345509017 0.02721164986649715 
-0.002852701097612145 0.01161810949335675 -0.01306824706715673 
0.005262198245443301 0.01790898673772438 -0.0247333530567435 
-0.005236656778765722 0.007779620766685014 -0.0005325247802517067 
0.002037137590793403 0.005884929888945109 -0.009433145320259269 
-0.009370855508869127 0.02130110408768963 -0.01076334442218837 
-0.01217525169233683 -0.007330315873978056 0.01836723550533843 
0.009526600808439244 0.007999388696852227 -0.01171146035274534 
-0.004410843690325772 -0.002985444642613841 0.01095211598378915 
-0.004974341433365284 0.01829505453512369 -0.008112284902944166 
-0.001167608191844745 0.003079288518649811 0.001696921816913968 
-0.009189960257794619 0.01557017476828223 -0.003802619651972966 
-0.01529455827210885 0.003299916294498842 0.008758437642451749 
0.002125138012150401 -0.003598613939919713 -0.000181164873632327 
-0.02276496939302165 -0.007144193517260291 0.01891758397453891 
-0.0004188991921693596 0.006357992890789685 -0.006872232399516666 
-0.009863104175548129 -0.006906788133284638 0.01156182215247965 
0.001603036718697874 0.006402112416477855 -0.005762168124930525 
0.008311398402076172 0.01236080443854004 -0.02320458680663713 
-0.007819632441405846 0.00550568981843902 0.00221804995195279 
-0.005832409974856448 -0.006265819118623529 0.01100388396737298 
0.01757314489152814 -0.01141033775291647 -0.005524851677104765 
0.0006496874715602277 -0.0003555500894045846 0.000462430256472764 
-0.01170392214299058 -0.005148245446873837 0.01339700016318319 
-0.001387394122202316 0.0021542157510319 -0.00198771880831511 
2.996490752758715e-05 -0.0154430977203702 0.01366786802968702 
-0.0101972721870059 0.0005742205386323413 0.007319704247028935 
0.005370002340266581 0.01479064174306985 -0.01899200310651018 
-0.001960201666496571 0.01900742571535369 -0.01758526253226489 
0.01839635692042716 0.006271845471813583 -0.02536918433424853 
-0.004438379729570706 0.01200127754976371 -0.006531410441285827 
0.0089340532779151 -0.006047491719990068 -0.003597367256709867 
-0.00418346365697224 -0.002349065416388641 0.006309830131267099 
0.001494544095379328 -0.008286478123430941 0.006300424735765131 
-0.007638451859172953 -0.009923041057496716 0.01583668429930689 
-0.009157993076107719 -0.01081105068396039 0.01591642215694889 
-0.001463492309833804 0.003037551909053352 -0.0008508293627704798 
-0.01448013900096117 -0.0104934835135006 0.02222553389666037 
-0.007169064271205129 0.01138338693420944 -0.003064781017252724 
0.03026984628324856 0.00481235742449799 -0.03515882691839849 
-0.008914691726069048 -0.003366955914167484 0.01081858856561974 
0.004281949298302485 -0.01233963793384982 0.005238135029089741 
-0.008321023613620084 -0.009072766551704563 0.01385469107093424 
-0.01077561289244596 0.014849438697909 -0.005961213960404743 
0.00616033489976989 -0.004288308287060708 -0.004442562670561937 
0.0102229477878154 -0.00547264044000996 -0.007609677756281798 
-0.004550182124794694 -0.01030736881809682 0.01467118847534525 
-0.003656092723578701 0.007978251486043879 -0.007254244106110449 
-0.01164679782100317 -0.001247534033263694 0.006200816519341856 
0.008202304330328499 -0.01284515371133634 0.001997944057095305 
0.001215396472558724 0.006147672760542894 -0.006463351687404941 
0.01135527635781324 -0.003496998506932099 -0.01189448088169715 
0.009530784712962549 0.01167054971319429 -0.02373805415493202 
-0.004650393684812255 -0.009456447144557123 0.01098958030986523 
0.0001401734055227155 0.001835734575132296 -0.0006472733413773129 
0.01795157135336767 -0.010352896864799 -0.004726033763498414 
0.01054426406329194 -0.02265646899455172 0.01437551935661088 
0.006075556696430524 0.005346754141064201 -0.01079306866001959 
0.004602155385548588 0.008127634217922949 -0.01155190593987293 
0.01647299551511148 0.01933530468987149 -0.03443677095032843 
0.009920353937248218 0.008840106711818344 -0.01658162367332179 
0.002999364766563426 0.0008899083756844892 -0.004318727877894276 
0.02092300837605172 -0.0001272789142585195 -0.02277292735640073 
0.0113315541014848 -0.004266527258687677 -0.006232442730300007 
